
\data\
ngram 1=30301
ngram 2=81551
ngram 3=23000

\1-grams:
-5.400134	!sil
-5.045825	-'s	-0.1184164
-5.045825	-1k	-0.1184164
-5.400134	-able
-5.400134	-ains
-5.400134	-an
-5.400134	-arious
-5.400134	-as
-5.400134	-asm
-5.400134	-at
-4.828617	-at's	-0.1184164
-5.400134	-ate
-5.400134	-ause
-5.045825	-ay	-0.1184164
-5.400134	-b-
-5.045825	-body	-0.1184164
-5.400134	-body's
-5.045825	-bout	-0.1184164
-5.400134	-cal
-5.400134	-cau-
-5.400134	-chestra
-5.400134	-choice
-5.400134	-chool
-5.400134	-ciary
-5.400134	-cise
-5.400134	-come
-5.400134	-con-
-5.400134	-credible
-5.400134	-cross
-5.400134	-cuse
-5.400134	-cutor
-5.045825	-duce	-0.1184164
-5.400134	-ducted
-5.400134	-e
-5.400134	-eah
-5.400134	-earned
-5.400134	-ee
-5.400134	-een
-5.045825	-ell	-0.1184164
-5.400134	-ello
-5.400134	-ere's
-5.400134	-erry
-5.045825	-et	-0.1184164
-5.400134	-ey
-5.400134	-f
-5.400134	-fferent
-5.400134	-fit
-5.045825	-fluorocarbons	-0.1184164
-5.045825	-fore	-0.1184164
-5.400134	-fortunately
-5.400134	-fr-
-5.045825	-fraid	-0.1184164
-5.400134	-fusions
-5.400134	-gree
-5.400134	-hart
-5.400134	-head
-5.400134	-idn't
-5.400134	-ight
-5.400134	-ike
-5.045825	-ill	-0.1184164
-5.400134	-is
-5.400134	-ith
-5.400134	-joy
-5.400134	-joyed
-5.400134	-kay
-5.400134	-ke
-5.400134	-ken
-5.400134	-laxed
-5.400134	-less
-5.400134	-ll
-5.400134	-llo
-5.400134	-lution
-5.400134	-ly
-5.400134	-ma-
-5.400134	-magine
-5.400134	-member
-5.400134	-membered
-5.400134	-mer-
-5.400134	-mergency
-5.400134	-mongst
-5.400134	-mount
-5.400134	-moves
-5.400134	-n
-5.400134	-n't
-5.400134	-nd
-5.400134	-ness
-5.400134	-night
-5.400134	-noth-
-5.045825	-nother	-0.1184164
-5.045825	-o	-0.1184164
-5.400134	-obably
-5.400134	-ociety
-5.400134	-oes
-5.400134	-omen
-5.400134	-on't
-5.400134	-one
-5.400134	-onna
-5.400134	-ord
-5.400134	-ors
-5.400134	-ot
-5.400134	-ou
-5.400134	-ou-
-5.400134	-ourse
-5.400134	-out
-5.400134	-ow
-5.400134	-partment
-5.400134	-pecially
-5.400134	-pending
-5.400134	-pends
-5.400134	-perience
-5.400134	-person
-5.045825	-pinion	-0.1184164
-5.400134	-ployed
-5.400134	-portant
-5.400134	-posed
-5.400134	-pposed
-5.400134	-prised
-5.400134	-puter
-5.400134	-quires
-5.400134	-r
-5.400134	-re
-5.400134	-re's
-5.045825	-renewable	-0.1184164
-5.045825	-round	-0.1184164
-5.400134	-s
-5.400134	-sane
-5.400134	-satisfied
-5.400134	-se
-5.400134	-sego
-5.045825	-self	-0.1184164
-5.400134	-ship
-5.400134	-side
-5.400134	-sign
-5.400134	-squitoes
-5.400134	-sr
-4.828617	-st	-0.1184164
-5.045825	-su-	-0.1184164
-5.400134	-sually
-5.400134	-t
-4.828617	-t's	-0.1184164
-5.400134	-tailed
-5.400134	-tective
-5.400134	-temporary
-5.400134	-ter
-5.400134	-ther
-5.045825	-thing	-0.1184164
-4.828617	-til	-0.1184164
-5.400134	-times
-5.045825	-tory	-0.1184164
-5.400134	-tro-
-5.400134	-troit's
-5.400134	-tu-
-5.400134	-tute
-5.400134	-ure
-5.400134	-ust
-5.400134	-v
-5.400134	-van-
-5.400134	-ve
-5.400134	-veloping
-5.400134	-vely
-5.400134	-versity
-5.400134	-verting
-5.400134	-vestment
-5.400134	-way
-5.400134	-way-
-5.400134	-where
-5.400134	-y
-5.400134	-z
-4.463427	.s	-0.1184164
-5.400134	007
-5.400134	1
-5.400134	100
-5.400134	101
-5.045825	10a	-0.1184164
-5.400134	1200
-5.400134	125k
-5.400134	128
-5.400134	13th
-5.400134	13ths
-5.400134	150
-5.400134	1500
-4.828617	2	-0.1184164
-4.654845	20/20	-0.1184164
-5.045825	2000	-0.1184164
-5.400134	21
-5.400134	260
-5.400134	286
-5.400134	287
-5.400134	2ci
-5.045825	302	-0.1184164
-5.400134	365
-5.400134	380
-5.400134	386
-5.400134	4-runner
-5.045825	40-	-0.1184164
-5.400134	401-
-4.654845	401k	-0.1184164
-5.400134	401k's
-5.400134	48
-5.400134	486
-5.400134	49er
-5.400134	49ers
-5.400134	4h
-5.045825	4o-	-0.1184164
-5.045825	5	-0.1184164
-5.400134	500
-4.828617	60	-0.2560809
-5.400134	635
-5.400134	635's
-5.045825	69	-0.1184164
-5.045825	6s	-0.1184164
-5.400134	7-eleven
-5.400134	7-up
-5.400134	7094
-5.400134	747
-5.400134	8088
-5.400134	90210
-5.400134	9050
-5.400134	911
-5.400134	990
-1.454183	</s>
-99	<s>	-1.311387
-3.685979	<unk>	-0.1726713
-2.309581	[laughter]	-0.6323795
-2.644715	[noise]	-0.4164895
-2.64944	[vocalized-noise]	-0.4089255
-2.068941	a	-0.4790412
-5.400134	a&e
-4.654845	a&m	-0.1184164
-3.157039	a-	-0.308894
-4.229695	a.	-0.1184164
-5.400134	a.'s
-5.400134	a._a._r._p.
-5.400134	a._b._a.
-4.828617	a._b._c.	-0.1184164
-5.400134	a._b._c.'s
-5.400134	a._c.
-5.400134	a._c._c.
-5.045825	a._c._l._u.	-0.1184164
-5.400134	a._c._l._u.'s
-5.400134	a._c._m.
-5.045825	a._f._c.	-0.1184164
-5.400134	a._f._c.'s
-5.400134	a._f._c.s
-5.400134	a._f._l.
-5.400134	a._i._c._p._a.
-5.400134	a._i._t.
-5.400134	a._j.s
-5.400134	a._k._c.
-4.147593	a._m.	-0.1535049
-5.400134	a._m._a.
-5.400134	a._o._r.
-5.045825	a._p.	-0.1184164
-5.400134	a._p._a.
-5.400134	a._p._d.
-5.400134	a._p._r.
-5.400134	a._r._e.
-4.828617	a._r._i.	-0.1184164
-5.400134	a._s._t.
-5.400134	a._t.
-5.400134	a._t._m.
-5.400134	a._t._m.'s
-5.400134	a._t.s
-5.400134	a._z._t.
-5.400134	a1
-5.400134	aames
-5.400134	aaron
-5.400134	ab-
-5.400134	aback
-5.400134	abacus
-5.400134	abalon
-5.400134	abalone
-5.045825	abandon	-0.1184164
-5.400134	abandoned
-5.400134	abandoning
-5.400134	abbreviated
-5.400134	abbreviation
-5.400134	abby
-5.400134	abcs
-5.400134	abdominals
-5.400134	abducting
-5.400134	abduction
-5.045825	abdul	-0.1184164
-5.400134	abe
-5.400134	aberdeen
-5.400134	abhor
-5.400134	abide
-5.400134	abiding
-5.400134	abilene
-5.400134	abilities
-4.229695	ability	-0.3766574
-3.593252	able	-1.023414
-5.400134	able-bodied
-4.654845	abnormal	-0.1184164
-5.400134	abnormality
-5.400134	aboard
-5.045825	abolish	-0.1184164
-5.400134	aborigines
-5.400134	abort
-5.045825	aborting	-0.1184164
-4.828617	abortion	-0.1184164
-5.400134	abortion's
-5.400134	abortions
-5.400134	abou-
-5.400134	abounding
-2.481991	about	-0.5196424
-5.400134	abouts
-4.019032	above	-0.1454588
-5.400134	aboveboard
-5.400134	abraham
-5.400134	abrams
-5.400134	abrasive
-5.045825	abreast	-0.1184164
-5.400134	abridged
-5.045825	abroad	-0.1184164
-5.400134	abrode
-5.400134	abrupt
-5.400134	abs-
-5.400134	absence
-5.400134	absent
-5.400134	absentee
-5.400134	absenteeism
-5.400134	absentees
-5.400134	abso-
-5.400134	absol-
-5.400134	absolu-
-5.400134	absolut-
-4.331024	absolute	-0.1184164
-5.045825	absolute-	-0.1184164
-3.637146	absolutely	-0.2685375
-5.400134	absoluteness
-5.400134	absorb
-5.400134	absorbed
-5.400134	absorbs
-5.400134	abstinence
-5.400134	abstract
-5.045825	abstracts	-0.1184164
-4.463427	absurd	-0.1184164
-5.400134	abundance
-5.400134	abundant
-5.400134	abundantly
-3.966678	abuse	-0.1563252
-5.045825	abused	-0.1184164
-5.045825	abuser	-0.1184164
-5.045825	abusers	-0.1184164
-4.331024	abuses	-0.1683745
-5.400134	abusing
-5.400134	abusive
-5.400134	abyss
-4.463427	ac-	-0.1184164
-5.400134	academia
-4.828617	academic	-0.1184164
-5.045825	academically	-0.1184164
-5.045825	academics	-0.1184164
-5.400134	academies
-5.400134	academy
-5.400134	acapulco
-4.828617	acc-	-0.1184164
-5.400134	acce-
-5.400134	accelerate
-5.045825	accelerated	-0.1184164
-4.828617	acceleration	-0.1184164
-5.045825	accent	-0.1184164
-5.400134	accent's
-5.400134	accents
-5.400134	accep-
-4.828617	accept	-0.1184164
-4.331024	acceptable	-0.1596388
-5.400134	acceptance
-5.400134	acceptances
-4.828617	accepted	-0.2051883
-5.400134	accepting
-5.045825	acceptive	-0.1184164
-5.400134	accepts
-3.877787	access	-0.5455092
-5.400134	accessed
-5.400134	accessibility
-5.045825	accessible	-0.1184164
-5.045825	accessories	-0.1184164
-5.400134	accessorize
-5.400134	accessors
-5.400134	acci-
-4.019032	accident	-0.1526693
-5.045825	accidental	-0.1184164
-5.045825	accidentally	-0.1184164
-5.400134	accidently
-5.045825	accidents	-0.1184164
-5.400134	acclaim
-5.400134	acclaimed
-5.400134	acclimate
-5.400134	acclimated
-5.400134	acco-
-5.400134	accom-
-5.045825	accommodate	-0.1184164
-5.400134	accommodated
-5.400134	accommodating
-5.400134	accommodations
-5.045825	accompanied	-0.1184164
-5.400134	accompanies
-5.400134	accompaniments
-5.400134	accompany
-5.400134	accomplices
-4.463427	accomplish	-0.1184164
-4.828617	accomplished	-0.1184164
-5.400134	accomplishes
-5.400134	accomplishing
-5.400134	accomplishment
-5.400134	accomplishments
-5.400134	accor-
-4.828617	accord	-0.1184164
-5.400134	accordance
-4.654845	according	-0.3254652
-4.654845	accordingly	-0.2051883
-5.400134	accordion
-5.045825	accords	-0.1184164
-5.400134	accosted
-3.637146	account	-0.2613415
-5.045825	account's	-0.1184164
-5.400134	accountability
-5.400134	accountable
-5.400134	accountant
-5.400134	accountant's
-5.400134	accountants
-5.400134	accounted
-4.147593	accounting	-0.1535049
-4.463427	accounts	-0.1596388
-5.400134	accredita-
-5.400134	accreditation
-5.400134	accreditations
-5.400134	accredited
-5.400134	accrue
-5.400134	accrued
-5.400134	accu-
-5.400134	accumulate
-5.400134	accumulated
-5.400134	accumulates
-5.400134	accumulating
-5.400134	accumulation
-5.400134	accumulative
-5.400134	accumulators
-5.400134	accuracy
-4.463427	accurate	-0.1184164
-5.400134	accurate-
-5.400134	accurately
-5.045825	accusation	-0.1184164
-5.400134	accusations
-4.828617	accuse	-0.1184164
-4.654845	accused	-0.1818167
-5.400134	accuses
-5.400134	accusing
-5.400134	accustom
-5.045825	accustomed	-0.1184164
-5.400134	ace
-5.400134	aces
-5.400134	ache
-5.400134	aches
-5.400134	achie-
-4.828617	achieve	-0.1184164
-5.045825	achieved	-0.1184164
-5.045825	achievement	-0.1184164
-5.045825	achievements	-0.1184164
-5.400134	achieving
-5.045825	acid	-0.1184164
-5.400134	acidic
-5.400134	acidity
-5.400134	acids
-5.400134	acknowledge
-5.400134	acknowledging
-5.400134	acorn
-5.400134	acorns
-5.400134	acoust-
-5.400134	acoustic
-5.400134	acoustical
-5.400134	acoustically
-5.045825	acoustics	-0.1184164
-5.400134	acquaint-
-5.400134	acquaintance
-5.400134	acquaintances
-5.400134	acquainted
-5.045825	acquire	-0.1184164
-5.400134	acquired
-5.400134	acquiring
-5.400134	acquisition
-5.045825	acquit	-0.1184164
-5.045825	acquittal	-0.1184164
-5.045825	acquitted	-0.1184164
-5.400134	acquitting
-5.400134	acre
-5.400134	acreage
-5.045825	acres	-0.1184164
-5.400134	acro-
-3.637146	across	-0.589401
-5.400134	acrostic
-5.400134	acrylic
-5.400134	acrylics
-4.654845	act	-0.1818167
-4.331024	act-	-0.1683745
-5.045825	acted	-0.1184164
-4.654845	acting	-0.1184164
-5.400134	actinide
-4.331024	action	-0.1184164
-4.828617	actions	-0.1184164
-5.400134	activate
-5.400134	activated
-3.919962	active	-0.2187187
-4.828617	actively	-0.2560809
-5.045825	activist	-0.1184164
-5.400134	activists
-3.839347	activities	-0.1666212
-4.654845	activity	-0.1184164
-5.045825	actor	-0.1184164
-5.400134	actors
-5.400134	actors'
-5.400134	actress
-5.400134	actresses
-4.463427	acts	-0.1818166
-4.828617	actu-	-0.1184164
-5.045825	actua-	-0.1184164
-4.078573	actual	-0.1184164
-5.400134	actuality
-5.400134	actuall-
-2.784956	actually	-0.3080784
-5.045825	acuity	-0.1184164
-5.400134	acupuncture
-5.045825	acura	-0.1184164
-5.400134	acute
-5.400134	acutely
-4.463427	ad	-0.1184164
-5.045825	ad-	-0.1184164
-5.045825	adage	-0.1184164
-5.400134	adam
-5.400134	adamant
-5.400134	adamantly
-5.400134	adamnet
-5.045825	adams	-0.1184164
-5.045825	adapt	-0.1184164
-5.400134	adaptable
-5.400134	adaptation
-5.400134	adaptations
-5.400134	adapted
-5.400134	adapting
-5.400134	adcose
-4.147593	add	-0.1489606
-5.400134	add-
-5.400134	addams
-4.229695	added	-0.1184164
-5.400134	adder
-5.045825	addict	-0.1184164
-5.045825	addicted	-0.1184164
-4.828617	addiction	-0.1184164
-5.400134	addictions
-5.045825	addictive	-0.1184164
-5.400134	addicts
-5.045825	adding	-0.1184164
-5.400134	addison
-4.463427	addition	-0.1818167
-4.828617	additional	-0.1184164
-5.400134	additionally
-5.045825	additions	-0.1184164
-5.400134	additives
-5.045825	addled	-0.1184164
-4.463427	address	-0.1184164
-5.045825	addressed	-0.1184164
-4.828617	addresses	-0.2560809
-5.400134	addressing
-4.463427	adds	-0.2637464
-5.400134	adelaide
-5.400134	adept
-4.654845	adequate	-0.1184164
-4.828617	adequately	-0.1184164
-5.400134	adh-
-5.400134	adhere
-5.400134	adherence
-5.400134	adheres
-5.045825	adhering	-0.1184164
-5.400134	adhesive
-5.400134	adios
-5.400134	adirondack
-5.400134	adirondacks
-5.400134	adjacent
-5.400134	adjoin
-5.400134	adjoining
-5.400134	adjourned
-5.045825	adjudicator	-0.1184164
-5.400134	adjust
-5.400134	adjustability
-5.400134	adjustable
-4.331024	adjusted	-0.1683745
-5.045825	adjuster	-0.1184164
-5.400134	adjusters
-5.400134	adjusting
-4.828617	adjustment	-0.1184164
-5.045825	adjustments	-0.1184164
-5.400134	admin
-5.400134	adminis-
-5.400134	administaff
-5.045825	administer	-0.1184164
-5.045825	administered	-0.1184164
-5.400134	administering
-5.400134	administers
-5.045825	administrate	-0.1184164
-5.400134	administrating
-4.147593	administration	-0.1454588
-5.400134	administration's
-5.400134	administrations
-5.045825	administrative	-0.1184164
-5.400134	administratively
-4.828617	administrator	-0.1184164
-4.654845	administrators	-0.1184164
-5.400134	administrators'
-5.400134	admirable
-5.400134	admiral
-5.400134	admiration
-5.400134	admire
-5.400134	admirer
-5.400134	admires
-5.400134	admissible
-5.400134	admission
-5.400134	admissions
-4.331024	admit	-0.1839566
-5.045825	admits	-0.1184164
-5.045825	admitted	-0.1184164
-5.400134	admittedly
-5.400134	admitting
-5.400134	admonition
-5.400134	admonitions
-5.400134	adobo
-5.400134	adolescence
-5.400134	adolescents
-5.400134	adolf
-5.400134	adolph's
-4.828617	adopt	-0.1184164
-5.400134	adopt-
-5.400134	adopt-a-highway
-5.400134	adopted
-5.400134	adopting
-5.400134	adoption
-5.400134	adoptive
-5.400134	adopts
-5.400134	adorable
-5.400134	adore
-5.400134	adored
-5.400134	adornment
-5.400134	adrenalin
-5.400134	adrenaline
-5.400134	adrian
-5.400134	adrift
-5.400134	adroit
-4.463427	ads	-0.1818166
-5.400134	adubato
-4.147593	adult	-0.1369573
-5.400134	adult's
-5.400134	adulthood
-4.229695	adults	-0.1184164
-5.400134	adv-
-5.400134	adva-
-5.400134	advan-
-5.045825	advance	-0.1184164
-4.331024	advanced	-0.1184164
-5.045825	advancement	-0.1184164
-5.045825	advances	-0.1184164
-5.400134	advancing
-3.966678	advantage	-0.2951713
-5.400134	advantaged
-5.400134	advantageous
-4.828617	advantages	-0.1184164
-5.045825	advent	-0.1184164
-5.400134	adventists
-4.828617	adventure	-0.1184164
-5.400134	adventured
-5.400134	adventurer
-5.400134	adventures
-5.400134	adventuresome
-5.400134	adventurous
-5.400134	adver-
-5.400134	adversaries
-5.045825	adverse	-0.1184164
-5.400134	advert-
-5.045825	advertise	-0.1184164
-5.400134	advertised
-5.045825	advertisement	-0.1184164
-5.400134	advertisements
-4.654845	advertisers	-0.1184164
-4.828617	advertising	-0.1184164
-5.045825	advice	-0.1184164
-5.400134	advil
-5.400134	advisable
-4.463427	advise	-0.1184164
-5.400134	advised
-5.400134	advisement
-5.400134	advises
-5.400134	advising
-5.400134	advisor
-5.400134	advisors
-5.400134	advisory
-5.400134	advocacy
-4.654845	advocate	-0.1184164
-5.400134	advocates
-5.400134	advocating
-5.400134	ae-
-5.400134	aerate
-5.400134	aerial
-5.400134	aero-
-5.400134	aerob-
-5.400134	aerobatics
-4.463427	aerobic	-0.1184164
-5.400134	aerobically
-4.229695	aerobics	-0.1850305
-5.400134	aerodynamic
-5.400134	aerodyne
-5.400134	aeronautical
-5.045825	aerosmith	-0.1184164
-5.400134	aerosol
-5.045825	aerosols	-0.1184164
-5.400134	aerospace
-5.400134	aerostar
-5.400134	aesthetic
-5.400134	aesthetically
-5.400134	aetna
-4.828617	af-	-0.2560809
-5.400134	afar
-5.045825	aff-	-0.1184164
-5.400134	affair
-5.045825	affairs	-0.1184164
-4.331024	affect	-0.1184164
-5.400134	affect-
-4.654845	affected	-0.1184164
-4.828617	affecting	-0.1184164
-4.828617	affection	-0.1184164
-5.045825	affectionate	-0.1184164
-4.463427	affects	-0.1184164
-5.400134	affidavit
-5.400134	affiliate
-4.828617	affiliated	-0.256081
-5.400134	affiliates
-5.400134	affiliation
-5.400134	affirmative
-5.400134	affixing
-5.400134	afflicted
-5.400134	affluence
-5.045825	affluent	-0.1184164
-5.400134	affluents
-4.078573	afford	-0.2029842
-5.045825	affordable	-0.1184164
-5.045825	afforded	-0.1184164
-5.400134	affording
-5.400134	affords
-5.400134	afghan
-5.400134	afghani
-5.400134	afghanis-
-5.400134	afghanistan
-5.400134	afghanistanis
-5.400134	afghans
-5.045825	afloat	-0.1184164
-5.400134	afoot
-4.331024	afraid	-0.1818167
-5.400134	afresh
-5.400134	afri-
-4.654845	africa	-0.1184164
-5.045825	african	-0.1184164
-5.400134	africans
-5.045825	aft-	-0.1184164
-3.06754	after	-0.3852514
-5.400134	afterburners
-5.400134	aftermath
-4.229695	afternoon	-0.1683745
-4.654845	afternoons	-0.1184164
-5.400134	afterthought
-4.828617	afterward	-0.1184164
-4.654845	afterwards	-0.1184164
-4.828617	ag-	-0.1184164
-5.400134	aga-
-5.400134	agai-
-3.269901	again	-0.338358
-5.400134	again-
-3.260098	against	-0.3087992
-5.400134	agape
-5.400134	agatha
-3.660877	age	-0.2425619
-5.400134	aged
-4.331024	agencies	-0.1184164
-4.828617	agency	-0.1184164
-5.400134	agenda
-4.828617	agent	-0.2051883
-5.400134	agents
-5.400134	ager
-4.331024	ages	-0.1683745
-5.400134	agewise
-5.045825	agey	-0.1184164
-5.400134	aggrava-
-5.400134	aggravate
-5.045825	aggravated	-0.1184164
-5.400134	aggravates
-5.400134	aggravating
-5.400134	aggravation
-5.400134	aggress-
-5.400134	aggression
-5.045825	aggressions	-0.1184164
-4.331024	aggressive	-0.1184164
-5.400134	aggressor
-5.400134	aghast
-5.400134	agile
-5.400134	aging
-5.045825	agitating	-0.1184164
-5.400134	agnostic
-5.400134	agnus
-3.660877	ago	-0.2854478
-5.400134	agony
-5.400134	agr-
-5.400134	agrarian
-3.593252	agree	-0.4131865
-5.400134	agreeable
-4.229695	agreed	-0.1916795
-5.045825	agreeing	-0.1184164
-4.654845	agreement	-0.1184164
-5.400134	agreements
-4.828617	agrees	-0.1184164
-5.400134	agri-
-5.045825	agricultural	-0.1184164
-5.400134	agriculturally
-5.400134	agriculture
-5.400134	aguirre
-4.078573	ah	-0.1184164
-5.400134	ah-
-5.045825	aha	-0.1184164
-3.839347	ahead	-0.3147255
-4.828617	ahold	-0.2560809
-5.400134	ai-
-4.078573	aid	-0.198341
-5.400134	aid-
-5.400134	aide
-5.400134	aides
-3.804034	aids	-0.2039293
-5.400134	aikman
-5.400134	aikman's
-5.045825	ailment	-0.1184164
-5.400134	ailments
-5.400134	aim
-4.828617	aimed	-0.2560809
-5.400134	aiming
-5.400134	aimlessly
-4.828617	ain't	-0.1184164
-5.400134	aines
-5.400134	ainge
-5.400134	ainsley
-3.593252	air	-0.281028
-5.045825	air's	-0.1184164
-5.400134	air-
-5.400134	air-conditioned
-5.045825	air-conditioning	-0.1184164
-5.045825	airbags	-0.1184164
-5.400134	airborne
-4.654845	aircraft	-0.1184164
-5.400134	aire
-5.400134	aired
-4.828617	airedale	-0.1184164
-5.400134	aires
-5.400134	airfare
-5.400134	airheaded
-5.400134	airless
-4.828617	airline	-0.1184164
-5.045825	airlines	-0.1184164
-5.400134	airpl-
-5.400134	airplane
-4.828617	airplanes	-0.1184164
-5.045825	airport	-0.1184164
-5.400134	airport's
-5.045825	airports	-0.1184164
-5.400134	airs
-5.400134	airspace
-5.045825	airtight	-0.1184164
-5.400134	airw-
-5.400134	airwaves
-5.400134	airway
-5.400134	airways
-5.400134	airy
-5.400134	aisle
-5.400134	aisles
-5.400134	ak-47
-5.400134	ak-47s
-5.400134	akals
-5.400134	akeem
-5.045825	akin	-0.1184164
-5.400134	akita
-5.400134	akron
-5.045825	al	-0.1184164
-4.078573	al-	-0.1489606
-5.400134	alaba-
-5.045825	alabama	-0.1184164
-5.400134	alamo
-5.400134	alamogordo
-5.400134	alamos
-5.400134	alan
-4.654845	alarm	-0.1184164
-5.400134	alarmed
-5.400134	alarms
-5.045825	alaska	-0.1184164
-5.400134	alaska's
-5.400134	alaskan
-5.400134	alastair
-5.400134	albania
-5.400134	albany
-5.400134	albequerque
-5.400134	albert
-5.400134	alberta
-5.400134	albertson's
-5.400134	albridge
-5.400134	albrough
-4.463427	album	-0.1535049
-4.654845	albums	-0.1184164
-5.400134	albuque-
-5.400134	albuquerque
-5.400134	alcatraz
-3.804034	alcohol	-0.2951713
-5.400134	alcohol's
-5.400134	alcoholi-
-4.828617	alcoholic	-0.1184164
-5.400134	alcoholics
-5.045825	alcoholism	-0.1184164
-5.400134	alda
-5.400134	aldus
-5.400134	ale
-5.400134	ale's
-5.400134	alec
-5.045825	alert	-0.1184164
-5.400134	alerted
-5.400134	alerts
-5.400134	alex
-5.400134	alex-
-5.400134	alexan-
-5.400134	alexander
-5.400134	alexandria
-5.400134	alfa
-5.400134	alfred
-5.400134	alfredo
-5.400134	alfredo's
-5.400134	algae
-5.400134	algebra
-5.400134	algeria
-5.045825	algorithm	-0.1184164
-5.400134	ali
-5.400134	alien
-5.400134	alienate
-5.400134	alienated
-5.400134	aliens
-5.045825	align	-0.1184164
-5.400134	aligned
-5.400134	alignment
-5.400134	alignments
-4.828617	alike	-0.2560809
-5.400134	alimony
-4.019032	alive	-0.1454588
-5.400134	alk-
-5.400134	alkaline
-5.400134	alkies
-2.478772	all	-0.5528014
-5.400134	all's
-5.400134	all-star
-5.400134	allah
-5.400134	allante
-5.400134	allege
-5.045825	alleged	-0.1184164
-5.400134	allegedly
-5.400134	allegheny
-5.045825	allen	-0.1184164
-5.400134	allen's
-5.400134	allendal
-5.400134	allendale
-5.400134	allenstown
-5.400134	allentown
-5.045825	allergic	-0.1184164
-5.400134	allergies
-5.400134	allergist
-5.400134	allergy
-5.400134	alleviate
-5.400134	alleviated
-5.400134	alleviates
-5.400134	alleviating
-5.400134	alley
-5.400134	alley's
-5.400134	alleys
-5.400134	alleyway
-5.400134	alleyways
-5.045825	alliance	-0.1184164
-5.400134	alliances
-5.400134	allied
-5.400134	allies
-5.400134	alligator
-5.400134	allocate
-5.400134	allocated
-5.400134	allocation
-5.400134	allocation's
-5.400134	allot
-5.400134	allotment
-5.400134	allots
-5.400134	allotted
-4.078573	allow	-0.1184164
-5.400134	allow-
-5.045825	allowable	-0.1184164
-5.045825	allowance	-0.1184164
-4.828617	allowances	-0.2560809
-4.147593	allowed	-0.198341
-4.828617	allowing	-0.1184164
-5.045825	allows	-0.1184164
-5.400134	allstate
-5.400134	alluded
-5.400134	alluding
-5.400134	allure
-5.400134	alluring
-5.400134	ally
-5.400134	allyson
-5.400134	alm-
-5.045825	alma	-0.1184164
-5.400134	almanac
-5.400134	almetco
-4.828617	almighty	-0.1184164
-5.045825	almo-	-0.1184164
-5.045825	almos-	-0.1184164
-3.164753	almost	-0.2286295
-5.400134	alo-
-5.400134	aloe
-3.741008	alone	-0.180698
-3.408928	along	-0.4123851
-5.400134	aloud
-5.400134	alpert
-5.400134	alpha
-5.045825	alphabet	-0.1184164
-5.400134	alpine
-5.400134	alps
-5.400134	alr-
-5.400134	alrea-
-3.499718	already	-0.1884796
-5.045825	alright	-0.1184164
-5.400134	alrighty
-5.400134	als-
-5.400134	alsatian
-2.958127	also	-0.2900176
-5.045825	alt	-0.1184164
-5.400134	alt-
-5.400134	alta
-5.400134	altar
-5.400134	alter
-5.400134	alter-
-5.400134	alterations
-5.045825	altercations	-0.1184164
-5.400134	altered
-5.400134	altering
-4.828617	alternate	-0.1184164
-5.400134	alternated
-5.400134	alternately
-5.400134	alternates
-5.400134	alternating
-3.966678	alternative	-0.1404151
-5.045825	alternatively	-0.1184164
-5.400134	alternatives
-5.045825	alternator	-0.1184164
-5.400134	alters
-3.322537	although	-0.3049373
-4.828617	altitude	-0.1184164
-5.400134	altitudes
-5.045825	alto	-0.1184164
-5.400134	altog-
-5.045825	altogether	-0.1184164
-5.045825	alton	-0.1184164
-5.400134	altoona
-5.400134	altruistic
-5.400134	altrusa
-5.400134	alum
-5.400134	alum-
-5.400134	alumi-
-5.400134	aluminium
-3.839347	aluminum	-0.3251896
-5.400134	alumnae
-5.400134	alumni
-5.400134	alums
-5.400134	alvarez
-5.400134	alvin
-5.400134	alw-
-5.400134	alway-
-3.120403	always	-0.2403926
-5.400134	alzh-
-5.400134	alzheimer
-4.828617	alzheimer's	-0.256081
-5.400134	alzheimers
-3.685979	am	-0.1860475
-5.045825	am-	-0.1184164
-5.400134	ama-
-5.400134	amaco
-5.400134	amanda
-5.400134	amaretta
-5.400134	amarillo
-5.400134	amaryllis
-5.045825	amateur	-0.1184164
-5.400134	amateurs
-5.400134	amaz-
-5.045825	amaze	-0.1184164
-5.400134	amaze-
-4.463427	amazed	-0.1596388
-5.400134	amazes
-3.804034	amazing	-0.2662048
-5.045825	amazingly	-0.1184164
-5.400134	ambassador
-5.400134	ambience
-5.400134	ambition
-5.400134	ambitions
-5.045825	ambitious	-0.1184164
-4.828617	ambivalent	-0.1184164
-5.045825	ambulance	-0.1184164
-5.400134	ambulatory
-5.400134	amdahl
-5.400134	ame-
-5.400134	amelia
-5.400134	amen-
-5.400134	amended
-5.045825	amendment	-0.1184164
-5.045825	amendments	-0.1184164
-5.400134	amenities
-5.400134	amer-
-5.400134	ameri-
-4.229695	america	-0.1454588
-5.400134	america's
-3.572864	american	-0.1999695
-5.400134	american-
-5.400134	americanism
-5.045825	americanized	-0.1184164
-4.331024	americans	-0.1184164
-5.400134	americard
-5.400134	amguard
-5.400134	amherst
-5.400134	amiga
-5.400134	amiga's
-5.400134	amigas
-5.400134	amin
-5.400134	amish
-5.400134	amiss
-5.400134	amm-
-5.400134	ammon
-5.045825	ammonia	-0.1184164
-5.400134	ammuit-
-5.400134	ammunition
-5.400134	amnesia
-5.045825	amnesty	-0.1184164
-5.400134	amoeba
-5.045825	amok	-0.1184164
-4.654845	among	-0.2051883
-4.463427	amongst	-0.1184164
-5.400134	amoral
-5.045825	amorphous	-0.1184164
-5.400134	amory's
-5.400134	amou-
-3.395483	amount	-0.3701874
-4.828617	amounted	-0.2560809
-4.229695	amounts	-0.2097171
-5.400134	amp
-5.400134	amperage
-5.400134	amphetamines
-5.400134	ample
-5.400134	amplifier
-5.400134	amplifiers
-5.400134	amputated
-5.400134	amrein's
-5.400134	amsterdam
-5.400134	amtrak
-5.400134	amuse
-5.400134	amused
-5.400134	amusement
-5.400134	amusing
-5.045825	amway	-0.1184164
-5.400134	amy
-2.76281	an	-0.2961368
-3.369782	an-	-0.3646194
-5.400134	ana
-5.045825	ana-	-0.1184164
-5.400134	anachro
-5.045825	anaerobic	-0.1184164
-5.400134	anagram
-5.400134	anaheim
-5.045825	analog	-0.1184164
-5.045825	analogy	-0.1184164
-5.400134	analyses
-4.463427	analysis	-0.1818167
-5.400134	analyst
-5.045825	analysts	-0.1184164
-5.400134	analytical
-5.045825	analyze	-0.1184164
-5.045825	analyzers	-0.1184164
-5.400134	analyzing
-5.045825	anani-	-0.1184164
-5.400134	ananimous
-5.400134	anarchy
-5.400134	anatomy
-5.400134	ancestor
-5.400134	ancestors
-5.400134	ancestral
-5.400134	anchor
-5.400134	anchoring
-5.400134	anchors
-5.400134	anchovies
-4.828617	ancient	-0.1184164
-5.400134	ancients
-5.400134	ancle
-1.581868	and	-0.7574005
-5.400134	andean
-5.400134	anderson
-4.828617	andover	-0.1184164
-5.400134	andre
-5.400134	andrew
-5.400134	andrews
-5.400134	ands
-5.400134	anduille
-5.400134	andy
-5.400134	anecdotal
-5.400134	anecdote
-5.400134	anecdotes
-5.400134	aneurism
-5.400134	aneurisms
-5.400134	angel
-5.400134	angela
-5.045825	angeles	-0.1184164
-5.400134	angelo
-5.400134	angels
-4.828617	anger	-0.1184164
-5.400134	angering
-5.400134	angie
-5.045825	angle	-0.1184164
-5.400134	angled
-5.400134	anglers
-5.400134	angles
-5.045825	anglo	-0.1184164
-5.400134	anglos
-5.400134	angolan
-5.400134	angora
-4.331024	angry	-0.1683745
-5.400134	anguish
-5.400134	anguished
-5.400134	anguishing
-5.400134	anheimer
-5.400134	ani-
-4.229695	animal	-0.1426775
-4.828617	animal's	-0.1184164
-4.078573	animals	-0.2082023
-5.400134	animated
-5.400134	animation
-5.045825	animator	-0.1184164
-5.400134	animosities
-5.400134	animosity
-5.400134	anita
-4.828617	ankle	-0.1184164
-4.828617	ankles	-0.1184164
-5.400134	anklet
-5.400134	anklets
-4.229695	ann	-0.2097171
-5.400134	anna
-5.400134	annapolis
-5.045825	anne	-0.1184164
-5.400134	annette
-5.400134	annex
-5.400134	annie
-5.400134	annihilated
-5.400134	anniversary
-5.400134	annotated
-5.400134	announce
-5.400134	announced
-5.400134	announcement
-5.400134	announcements
-5.400134	announcer
-5.400134	announcers
-5.400134	announcing
-4.828617	annoy	-0.1184164
-5.400134	annoyance
-5.400134	annoyed
-4.828617	annoying	-0.1184164
-5.045825	annoys	-0.1184164
-5.400134	annu-
-4.828617	annual	-0.1184164
-5.400134	annualized
-5.400134	annually
-5.400134	annuals
-5.400134	annuities
-5.045825	annuitity	-0.1184164
-5.045825	annuity	-0.1184164
-5.400134	ano-
-5.400134	anointed
-5.400134	anomalies
-5.045825	anomaly	-0.1184164
-5.400134	anonymous
-5.400134	anonymously
-4.828617	anoth-	-0.1184164
-3.127487	another	-0.2679889
-5.400134	another's
-5.400134	ansi
-5.400134	anson
-5.400134	answ-
-4.229695	answer	-0.1666212
-5.400134	answer's
-5.400134	answer-
-5.045825	answered	-0.1184164
-4.828617	answering	-0.1184164
-4.828617	answers	-0.1184164
-5.400134	ant
-5.400134	ant-
-5.400134	antarctica
-5.400134	antares
-5.045825	ante	-0.1184164
-5.400134	anteks
-5.400134	antenna
-5.400134	antennas
-5.400134	anthem
-5.400134	anthologies
-5.400134	anthony
-5.400134	anthony's
-5.400134	anthropology
-5.400134	anti
-5.400134	anti-drunk
-5.400134	antiamericanism
-5.400134	antibeach
-5.400134	antibiotics
-5.400134	antiblack
-5.400134	antibody
-5.400134	antic-
-5.400134	anticapitalism
-5.400134	anticipate
-5.400134	anticipated
-5.400134	anticipating
-5.400134	anticipation
-5.400134	anticommunist
-5.400134	anticompetitive
-5.400134	anticrime
-5.400134	antidevelopment
-5.400134	antidrug
-5.400134	antidrugs
-5.400134	antiethical
-5.400134	antifreeze
-5.400134	antigen
-5.400134	antigovernment
-5.400134	antigun
-5.400134	antihistamine
-5.400134	antihistamines
-5.045825	antilock	-0.1184164
-5.400134	antimetric
-5.400134	antipasta
-5.400134	antipollution
-5.400134	antiquated
-5.400134	antique
-5.400134	antiques
-5.400134	antisemitic
-5.400134	antiseptic
-5.400134	antismog
-5.400134	antisocial
-5.400134	antisupporters
-5.400134	antitank
-5.400134	antitax
-5.400134	antitrade
-5.400134	antiwar
-5.400134	antiwomen
-5.400134	antlers
-5.400134	antone
-5.045825	antonio	-0.1184164
-5.400134	antonio's
-5.400134	ants
-5.045825	antsy	-0.1184164
-5.400134	anx-
-5.400134	anxieties
-5.400134	anxious
-2.874779	any	-0.3061739
-4.654845	any-	-0.1184164
-5.400134	anybo-
-5.400134	anybod-
-3.300711	anybody	-0.2209411
-5.045825	anybody's	-0.1184164
-4.828617	anyhow	-0.2560809
-5.400134	anymo-
-3.290196	anymore	-0.3931079
-5.400134	anyo-
-3.771379	anyone	-0.1636326
-5.400134	anyone's
-5.400134	anyplace
-5.400134	anyt-
-5.045825	anyth-	-0.1184164
-5.045825	anythi-	-0.1184164
-3.014873	anything	-0.3533975
-5.400134	anything's
-4.147593	anytime	-0.1489606
-5.400134	anyw-
-3.093168	anyway	-0.4100929
-4.463427	anyways	-0.1818166
-3.966678	anywhere	-0.1683745
-5.400134	ap
-5.400134	ap-
-5.400134	apar-
-4.078573	apart	-0.1184164
-5.045825	apart-	-0.1184164
-3.966678	apartment	-0.1843858
-4.463427	apartments	-0.3097106
-5.045825	apathetic	-0.1184164
-4.828617	apathy	-0.1184164
-5.400134	apes
-4.828617	apiece	-0.1184164
-5.400134	apliplations
-5.400134	apocalypse
-5.400134	apolitical
-5.400134	apollo
-5.400134	apologetic
-5.045825	apologize	-0.1184164
-5.400134	apology
-5.400134	apostle
-5.400134	app-
-5.400134	appalachia
-5.045825	appalachian	-0.1184164
-5.400134	appalachians
-4.654845	appalled	-0.2051883
-5.400134	appalling
-5.400134	appallingly
-5.400134	appalls
-5.400134	apparatus
-5.045825	apparent	-0.1184164
-3.804034	apparently	-0.1621899
-4.078573	appeal	-0.1904359
-5.400134	appeal-
-5.400134	appealed
-4.463427	appealing	-0.1818167
-4.331024	appeals	-0.1818167
-4.828617	appear	-0.1184164
-5.400134	appearance
-5.400134	appearances
-5.045825	appeared	-0.1184164
-4.654845	appears	-0.3254652
-5.400134	appease
-5.045825	appetite	-0.1184164
-5.400134	appetizer
-5.400134	appetizers
-5.400134	appetizing
-5.400134	appl-
-5.400134	applaud
-5.400134	applauding
-4.331024	apple	-0.1184164
-5.045825	apple's	-0.1184164
-5.400134	applebee's
-5.400134	apples
-5.400134	applesauce
-5.400134	appleseed
-5.400134	appliance
-5.045825	appliances	-0.1184164
-5.400134	applic-
-5.400134	applicable
-5.400134	applicant
-5.400134	applicants
-4.828617	application	-0.1184164
-5.400134	applications
-5.400134	applicator
-4.229695	applied	-0.1916795
-4.654845	applies	-0.1818167
-5.400134	appliqued
-5.400134	appliques
-4.147593	apply	-0.276664
-4.828617	applying	-0.1184164
-5.400134	appoint
-5.045825	appointed	-0.1184164
-5.400134	appointee
-5.400134	appointee's
-5.400134	appointees
-5.400134	appointing
-4.828617	appointment	-0.1184164
-4.463427	appointments	-0.1818167
-5.045825	apportion	-0.1184164
-4.828617	appraisal	-0.1184164
-5.400134	appraisals
-5.400134	appraise
-4.828617	appraised	-0.2051883
-5.400134	appraiser
-5.400134	appraisers
-5.400134	apprec-
-4.463427	appreciate	-0.1184164
-4.828617	appreciated	-0.1184164
-5.400134	appreciates
-5.400134	appreciation
-5.400134	appreciative
-5.045825	appreciator	-0.1184164
-5.400134	apprehend
-5.045825	apprehended	-0.1184164
-5.400134	apprehensive
-5.400134	apprentice
-5.400134	apprentices
-5.400134	appro-
-4.078573	approach	-0.1742975
-5.045825	approached	-0.1184164
-5.400134	approaches
-4.828617	approaching	-0.1184164
-5.400134	appropr-
-4.147593	appropriate	-0.1184164
-5.400134	appropriated
-5.400134	appropriately
-5.400134	approval
-5.045825	approve	-0.1184164
-5.400134	approved
-5.400134	approving
-5.045825	approximate	-0.1184164
-4.828617	approximately	-0.1184164
-5.400134	apricot
-4.654845	april	-0.1683745
-5.400134	apron
-5.400134	aprons
-5.400134	apropos
-5.400134	apso
-4.828617	apt	-0.2560809
-5.400134	aptitude
-5.400134	aptitudes
-5.400134	aptly
-5.400134	aq-
-5.400134	aqua
-5.400134	aqua-
-5.400134	aquacise
-4.828617	aquarium	-0.1184164
-5.400134	aquariums
-5.400134	aquatics
-5.400134	aquinas
-4.654845	ar-	-0.1184164
-5.045825	arab	-0.1184164
-5.045825	arabia	-0.1184164
-5.400134	arabian
-5.400134	arabians
-5.400134	arabic
-5.400134	arabs
-5.400134	arafat
-5.400134	aranca
-5.400134	aransas
-5.400134	arapaho
-5.045825	arbitrarily	-0.1184164
-5.400134	arbitrary
-5.400134	arbitrator
-5.045825	arbor	-0.1184164
-5.400134	arboretum
-5.400134	arbuckle
-5.400134	arbuckles
-5.400134	arby's
-5.400134	arc
-5.400134	arcade
-5.400134	arch
-5.400134	archaic
-5.400134	archeologists
-5.400134	archeology
-5.400134	archer
-5.400134	archery
-5.400134	archie
-5.045825	architect	-0.1184164
-5.400134	architects
-5.400134	architectural
-5.045825	architecture	-0.1184164
-5.400134	archives
-5.400134	arco
-5.400134	ardmore
-5.045825	arduous	-0.1184164
-2.431702	are	-0.4198033
-5.400134	are-
-3.260098	area	-0.3173783
-5.400134	area's
-5.400134	arear
-3.741008	areas	-0.167038
-3.408928	aren't	-0.2321585
-5.045825	arena	-0.1184164
-5.400134	arequipa
-5.400134	argentina
-5.400134	argentina's
-5.400134	argentine
-5.400134	argentinean
-5.400134	argu
-5.400134	arguable
-5.400134	arguably
-4.331024	argue	-0.1683745
-5.400134	argued
-5.400134	argues
-4.229695	arguing	-0.2097172
-3.877787	argument	-0.1818167
-5.045825	arguments	-0.1184164
-5.400134	arias
-5.400134	arid
-5.400134	aries
-5.045825	arise	-0.1184164
-5.400134	arises
-5.045825	arithmetic	-0.1184164
-5.400134	ariz-
-4.828617	arizona	-0.1184164
-5.400134	arizona's
-5.400134	ark
-5.400134	arkan-
-4.463427	arkansas	-0.1596388
-5.400134	arlene
-4.147593	arlington	-0.1535049
-5.400134	arlington's
-4.078573	arm	-0.1184164
-5.400134	arm-
-5.400134	armadillo
-5.400134	armadillos
-5.400134	armageddon
-5.400134	armaments
-5.400134	armchair
-4.654845	armed	-0.1184164
-5.400134	armenia
-5.400134	armenian
-5.400134	armenians
-5.400134	armey
-5.400134	armies
-5.400134	arming
-5.400134	armoire
-5.400134	armor
-4.019032	arms	-0.1904359
-4.828617	army	-0.1184164
-5.400134	army's
-5.045825	arnett	-0.1184164
-5.400134	arnold
-5.400134	arnold's
-5.400134	aromas
-5.400134	aromatic
-5.400134	arose
-5.400134	arou-
-5.400134	aroun-
-2.778512	around	-0.4114794
-5.400134	aroused
-5.400134	arquett
-5.400134	arr-
-5.400134	arrange
-5.045825	arranged	-0.1184164
-5.400134	arrangement
-5.400134	arrangements
-5.400134	arranger
-5.400134	arranging
-5.400134	array
-5.400134	arrest
-4.828617	arrested	-0.1184164
-5.400134	arresting
-4.828617	arrests	-0.1184164
-5.400134	arrival
-5.400134	arrivals
-5.400134	arrive
-5.045825	arrived	-0.1184164
-5.400134	arrives
-5.400134	arriving
-5.400134	arro-
-5.400134	arrogance
-5.045825	arrogant	-0.1184164
-5.400134	arrow
-5.400134	arrowheads
-5.400134	arrows
-5.400134	arsenal
-5.400134	arsenals
-5.400134	arsenic
-5.400134	arsenio
-5.045825	arson	-0.1184164
-4.654845	art	-0.1184164
-5.400134	art's
-5.400134	art-
-5.400134	arteries
-5.400134	arteriosclerosis
-5.400134	artery
-5.045825	arthritic	-0.1184164
-5.045825	arthritis	-0.1184164
-5.400134	arthur
-5.400134	arthur's
-5.400134	arti-
-5.400134	artichoke
-5.400134	artichokes
-4.229695	article	-0.1658266
-4.019032	articles	-0.2082023
-5.045825	artif-	-0.1184164
-5.045825	artifact	-0.1184164
-5.400134	artifacts
-4.828617	artificial	-0.1184164
-5.400134	artificially
-4.331024	artist	-0.1489606
-5.400134	artistic
-4.331024	artists	-0.1683745
-4.828617	arts	-0.1184164
-5.400134	artsy
-5.400134	artsy-craftsy
-5.045825	artwork	-0.1184164
-5.400134	aruba
-2.380199	as	-0.5862915
-5.045825	as-	-0.1184164
-5.400134	asbestos
-5.400134	ascended
-5.400134	ascertain
-5.400134	asceticism
-5.045825	ascribe	-0.1184164
-5.400134	ash
-5.400134	ashamed
-5.400134	ashes
-5.400134	asheville
-5.400134	ashley
-5.400134	ashley'll
-5.400134	ashtray
-5.400134	ashville
-5.400134	asi-
-5.400134	asia
-5.400134	asian
-5.400134	asians
-5.045825	asics	-0.1184164
-3.919962	aside	-0.2104281
-5.400134	asides
-5.400134	asimov
-5.400134	asimov's
-5.400134	asinine
-3.839347	ask	-0.2284367
-5.400134	ask-
-3.839347	asked	-0.1797906
-4.147593	asking	-0.1184164
-4.654845	asks	-0.2051883
-4.828617	asleep	-0.1184164
-5.400134	asparagus
-4.147593	aspect	-0.2766639
-4.463427	aspects	-0.1818167
-5.400134	aspen
-5.045825	asphalt	-0.1184164
-5.400134	asphyxiate
-5.400134	aspiration
-5.400134	aspirations
-4.828617	aspirin	-0.1184164
-5.045825	ass	-0.1184164
-5.400134	ass-
-5.400134	assailant
-5.045825	assassinate	-0.1184164
-5.400134	assassinated
-5.400134	assassination
-5.400134	assassinations
-4.229695	assault	-0.2051883
-5.045825	assaulted	-0.1184164
-5.400134	assaulting
-5.045825	assaults	-0.1184164
-5.400134	assed
-5.045825	assemble	-0.1184164
-5.045825	assembled	-0.1184164
-5.400134	assembling
-4.828617	assembly	-0.1184164
-5.045825	assemblyman	-0.1184164
-5.400134	assertive
-5.400134	asses
-5.400134	assess
-5.400134	assessed
-5.400134	assesses
-5.400134	assessing
-5.045825	assessment	-0.1184164
-5.400134	asset
-5.400134	assets
-5.400134	assholes
-5.400134	assign
-5.045825	assigned	-0.1184164
-5.400134	assigning
-5.400134	assignment
-5.045825	assignments	-0.1184164
-5.400134	assimilated
-5.400134	assis-
-5.400134	assisi
-5.400134	assist
-5.045825	assistance	-0.1184164
-4.654845	assistant	-0.2051883
-5.400134	assistants
-5.400134	assistantship
-5.400134	assisted
-5.400134	assisting
-5.400134	assists
-5.400134	associate
-4.463427	associated	-0.1818167
-5.045825	associates	-0.1184164
-5.400134	associating
-4.463427	association	-0.1184164
-4.654845	associations	-0.1184164
-5.400134	assorted
-5.400134	assortment
-4.078573	assume	-0.2208524
-5.045825	assumed	-0.1184164
-5.045825	assumes	-0.1184164
-4.463427	assuming	-0.1818167
-5.400134	assumingly
-5.045825	assump-	-0.1184164
-5.045825	assumption	-0.1184164
-5.400134	assumptions
-5.400134	assure
-5.400134	assured
-5.400134	assuredly
-5.045825	assures	-0.1184164
-5.045825	assuring	-0.1184164
-5.400134	astaire
-5.400134	asthma
-5.400134	asthmatic
-5.400134	astonia
-5.400134	astonished
-5.400134	astonishes
-5.400134	astonishing
-5.400134	astound
-5.400134	astounded
-5.400134	astounding
-5.045825	astounds	-0.1184164
-5.400134	astray
-5.400134	astro
-5.400134	astrodome
-5.400134	astronaut
-5.400134	astronauts
-5.400134	astronomers
-5.045825	astronomical	-0.1184164
-5.400134	astronomy
-5.400134	astros
-5.400134	astute
-5.400134	asylum
-2.360217	at	-0.6753656
-4.828617	at&t	-0.1184164
-5.400134	at&t's
-5.400134	at-
-5.400134	atari
-5.400134	atchafalaya
-5.400134	atchafalaya's
-4.828617	ate	-0.1184164
-5.400134	ath-
-5.045825	athlete	-0.1184164
-5.400134	athletes
-4.828617	athletic	-0.1184164
-5.045825	athletics	-0.1184164
-3.919962	atlanta	-0.2110108
-5.045825	atlanta's	-0.1184164
-5.400134	atlantic
-4.147593	atmosphere	-0.1184164
-5.400134	atmosphere's
-5.400134	atmospheres
-5.400134	atmospherewise
-5.045825	atmospheric	-0.1184164
-5.045825	atomic	-0.1184164
-5.400134	atone
-5.400134	atrocious
-5.400134	atrocities
-5.400134	atrocity
-5.400134	ats
-5.045825	att-	-0.1184164
-4.828617	attach	-0.1184164
-5.400134	attache
-4.463427	attached	-0.4504039
-5.400134	attaches
-5.400134	attaching
-4.654845	attachment	-0.1184164
-5.400134	attachments
-4.331024	attack	-0.3097107
-5.400134	attacked
-5.045825	attacking	-0.1184164
-5.400134	attacks
-5.400134	attain
-5.400134	attained
-5.400134	attaining
-5.400134	atteck
-4.654845	attempt	-0.2051883
-5.400134	attempted
-5.400134	attempting
-4.654845	attempts	-0.1184164
-5.400134	attenborough
-5.400134	attence
-4.828617	attend	-0.2560809
-5.400134	attendance
-5.045825	attendant	-0.1184164
-5.400134	attended
-5.400134	attending
-5.400134	attends
-3.839347	attention	-0.2289011
-5.400134	attention's
-5.400134	attentions
-5.400134	attentive
-5.045825	attest	-0.1184164
-5.400134	attic
-5.400134	attica
-5.045825	attire	-0.1184164
-5.400134	attitu-
-3.919962	attitude	-0.2097495
-5.400134	attitude's
-5.045825	attitudes	-0.1184164
-5.400134	attitudes'll
-5.400134	attleboro
-4.229695	attorney	-0.1535049
-5.045825	attorney's	-0.1184164
-5.045825	attorneys	-0.1184164
-5.400134	attrac-
-4.828617	attract	-0.1184164
-4.828617	attracted	-0.1184164
-5.400134	attraction
-5.400134	attractions
-5.400134	attractive
-5.400134	attractiveness
-5.045825	attracts	-0.1184164
-5.400134	attribute
-5.400134	attributed
-5.400134	attributes
-4.828617	attrition	-0.1184164
-5.400134	attuned
-5.400134	au
-5.400134	au-
-5.400134	aubrey
-5.400134	auburn
-5.045825	auction	-0.1184164
-5.400134	auctioned
-5.400134	auctioning
-5.400134	auctions
-5.400134	audelia
-5.400134	audi
-5.400134	audi's
-5.045825	audi-	-0.1184164
-5.400134	audible
-5.045825	audience	-0.1184164
-5.045825	audio	-0.1184164
-5.400134	audiology
-5.400134	audis
-5.045825	audit	-0.1184164
-5.045825	audited	-0.1184164
-5.400134	auditing
-5.045825	audition	-0.1184164
-5.045825	auditions	-0.1184164
-5.045825	auditor	-0.1184164
-5.045825	auditorium	-0.1184164
-5.400134	auditors
-4.828617	auditory	-0.1184164
-5.400134	audits
-5.400134	audrey
-5.400134	auel
-5.400134	augmon
-5.400134	augmon's
-5.045825	august	-0.1184164
-5.400134	augusta
-5.400134	augustine
-4.654845	aunt	-0.1184164
-5.400134	aunt's
-4.828617	aunts	-0.2560809
-5.400134	auspices
-5.400134	austen
-4.828617	austin	-0.1184164
-5.400134	austin's
-5.400134	australia
-5.045825	australian	-0.1184164
-5.400134	australians
-5.400134	austria
-5.400134	austrian
-5.400134	aut-
-5.400134	authentic
-5.400134	authenticity
-5.400134	author
-5.400134	author's
-5.045825	authoritarian	-0.1184164
-5.045825	authoritative	-0.1184164
-5.400134	authorities
-4.828617	authority	-0.1184164
-5.400134	authorization
-5.400134	authorize
-4.654845	authorized	-0.1184164
-5.400134	authors
-5.400134	autistic
-3.966678	auto	-0.1426775
-5.400134	auto-
-5.400134	autobahn
-5.400134	autobiographies
-5.400134	autobiography
-5.400134	autocad
-5.400134	autocrat
-5.400134	autograph
-5.400134	autographs
-5.400134	automa-
-5.400134	automakers
-5.400134	automat-
-4.654845	automated	-0.1818167
-4.019032	automatic	-0.2539598
-4.654845	automatically	-0.1184164
-5.400134	automatics
-5.400134	automation
-5.400134	autometer
-5.400134	automo-
-4.828617	automobile	-0.1184164
-5.400134	automobiles
-5.045825	automotive	-0.1184164
-5.400134	automotives
-5.400134	autonomists
-5.045825	autonomy	-0.1184164
-5.400134	autopilot
-5.400134	autry
-5.045825	autumn	-0.1184164
-5.400134	auxiliary
-5.400134	av-
-5.400134	avail-
-5.400134	availability
-3.637146	available	-0.2903377
-5.400134	avalanche
-5.400134	avalon
-5.400134	avant-garde
-5.400134	avenue
-5.400134	avenues
-4.019032	average	-0.1439927
-5.045825	averaged	-0.1184164
-5.400134	averages
-5.400134	averaging
-5.045825	aversion	-0.1184164
-5.400134	avery
-5.400134	avia
-5.400134	aviaries
-5.400134	aviary
-4.828617	aviation	-0.1184164
-5.400134	aviators
-5.045825	avid	-0.1184164
-4.828617	avionics	-0.1184164
-5.045825	avis	-0.1184164
-5.400134	avocado
-5.400134	avocados
-5.400134	avocation
-4.654845	avoid	-0.1818167
-5.400134	avoidable
-4.828617	avoided	-0.1184164
-5.400134	avoiding
-5.045825	avoids	-0.1184164
-5.400134	avon
-5.400134	aw-
-5.400134	awa-
-4.828617	awake	-0.1184164
-5.400134	awakened
-5.400134	awakening
-5.400134	awakenings
-4.078573	award	-0.1184164
-4.828617	awarded	-0.1184164
-4.828617	awarding	-0.1184164
-4.331024	awards	-0.1184164
-3.804034	aware	-0.5067844
-5.400134	awareness
-3.127487	away	-0.4103945
-5.400134	awe
-5.400134	awe-
-5.400134	awesome
-5.400134	awf-
-4.147593	awful	-0.1184164
-4.828617	awfully	-0.1184164
-5.400134	awfulness
-5.400134	awhi-
-4.147593	awhile	-0.1785485
-5.045825	awkward	-0.1184164
-5.400134	awol
-5.400134	awry
-5.045825	axe	-0.1184164
-5.400134	axes
-5.400134	axiom
-5.400134	axle
-5.400134	ayatollah
-5.045825	aye	-0.1184164
-5.400134	azalea
-5.400134	azaleas
-5.400134	azerbaijanis
-5.400134	b
-3.877787	b-	-0.1700334
-5.045825	b.	-0.1184164
-5.400134	b.'s
-5.400134	b._b.
-4.463427	b._b._c.	-0.1184164
-5.400134	b._b._c.'s
-5.045825	b._b.s	-0.1184164
-5.400134	b._e._o._g.
-5.400134	b._g.'s
-5.400134	b._l._y.
-4.654845	b._m._w.	-0.1818167
-5.400134	b._m._w.'s
-5.400134	b._m._w.s
-5.400134	b._p.
-5.400134	b._s._n.s
-5.400134	b._u.
-5.400134	b._v._d.
-5.400134	b._v._i.
-5.400134	b._v._r.
-5.400134	b._w._i.
-5.045825	b._y._u.	-0.1184164
-5.400134	b2
-5.400134	b6
-4.654845	ba-	-0.1184164
-5.400134	bab-
-5.400134	baba
-5.400134	babble
-5.400134	babbly
-5.400134	babe
-5.400134	babied
-4.828617	babies	-0.1184164
-3.839347	baby	-0.1573689
-5.045825	baby's	-0.1184164
-5.400134	baby-
-5.400134	babydoe
-5.045825	babysat	-0.1184164
-4.463427	babysit	-0.1683745
-4.828617	babysitter	-0.1184164
-4.463427	babysitters	-0.1184164
-4.463427	babysitting	-0.1184164
-5.400134	babysittingwise
-5.400134	bacally
-5.400134	baccalaureate
-4.828617	bach	-0.1184164
-5.400134	bach's
-5.045825	bachelor	-0.1184164
-4.828617	bachelor's	-0.256081
-5.400134	bachelors
-5.400134	bachman
-5.400134	bacillus
-2.843966	back	-0.4704064
-5.400134	back-
-5.400134	backaches
-5.400134	backbone
-5.400134	backdraft
-4.828617	backed	-0.1184164
-5.400134	backers
-5.400134	backfield
-5.400134	backfire
-5.400134	backfired
-5.400134	backfires
-5.400134	backgammon
-4.229695	background	-0.1489606
-5.400134	background's
-5.045825	backgrounds	-0.1184164
-4.828617	backing	-0.1184164
-5.400134	backings
-5.045825	backlash	-0.1184164
-5.400134	backless
-5.400134	backlog
-5.045825	backlogged	-0.1184164
-5.400134	backpack
-5.400134	backpacked
-5.400134	backpacker
-5.400134	backpacking
-5.400134	backpacks
-5.400134	backpedaling
-5.400134	backrest
-4.654845	backs	-0.1184164
-5.400134	backsaw
-5.045825	backseat	-0.1184164
-5.045825	backseats	-0.1184164
-5.400134	backside
-5.400134	backslapping
-5.400134	backsliding
-5.400134	backswing
-5.400134	backup
-5.400134	backward
-4.828617	backwards	-0.1184164
-5.400134	backwoods
-4.654845	backyard	-0.1683745
-5.400134	backyard's
-5.400134	backyards
-5.400134	bacon
-5.400134	bacteria
-5.400134	bacterial
-3.241133	bad	-0.2387327
-5.400134	badge
-5.400134	badger
-5.400134	badgering
-5.400134	badges
-4.331024	badly	-0.1184164
-5.400134	badminton
-5.400134	badness
-5.400134	baffled
-3.741008	bag	-0.167038
-5.400134	bagdad
-5.400134	bagels
-5.400134	bagga-
-5.400134	baggage
-4.828617	bagged	-0.1184164
-5.400134	baggers
-5.400134	bagging
-5.400134	baggio
-5.400134	baggy
-5.400134	baghdad
-5.400134	bagpipe
-5.400134	bagpipes
-3.741008	bags	-0.2585993
-5.400134	bah
-5.400134	baha-
-5.400134	bahama
-5.400134	bahamas
-5.400134	bahia
-5.400134	bahr
-5.045825	bail	-0.1184164
-5.400134	bailey
-5.045825	bailiff	-0.1184164
-5.400134	bailiffs
-5.400134	bailing
-5.400134	bailiwick
-5.400134	bait
-5.400134	baited
-5.400134	baiting
-5.400134	baits
-5.400134	baja
-5.400134	bajaing
-5.400134	bak-
-5.400134	bake
-5.400134	baked
-5.400134	baker
-5.400134	bakeries
-5.400134	bakers
-5.400134	bakersfield
-5.400134	bakery
-5.400134	bakes
-5.400134	baking
-5.045825	bakker	-0.1184164
-5.400134	baksheesh
-5.400134	bal-
-3.804034	balance	-0.1779569
-4.147593	balanced	-0.3281229
-5.045825	balances	-0.1184164
-5.045825	balancing	-0.1184164
-5.400134	balcony
-5.045825	bald	-0.1184164
-5.400134	baldwin
-5.400134	bale
-5.400134	baler
-5.400134	baling
-5.400134	balk
-4.229695	ball	-0.1733201
-5.400134	ball'll
-5.400134	ball-
-5.045825	ballad	-0.1184164
-5.400134	ballady
-5.400134	balled
-5.400134	ballerina
-4.828617	ballet	-0.1184164
-5.400134	ballets
-5.400134	ballgame
-5.400134	ballistic
-5.400134	balloon
-5.400134	ballooned
-5.400134	ballooning
-5.400134	balloons
-5.400134	ballot
-5.400134	balloting
-5.045825	ballots	-0.1184164
-5.400134	ballpark
-5.400134	ballplayers
-4.654845	balls	-0.1184164
-5.400134	ballum
-5.400134	baloney
-5.400134	balsamic
-5.400134	balti-
-5.400134	baltic
-5.400134	baltics
-4.828617	baltimore	-0.1184164
-5.400134	baltimore'll
-5.400134	baltimore's
-5.400134	bam
-5.045825	bam-	-0.1184164
-5.400134	bamba
-5.400134	bambi
-5.045825	bamboo	-0.1184164
-5.400134	bamburger's
-5.400134	bamorghini
-4.463427	ban	-0.1184164
-5.400134	banana
-5.045825	bananas	-0.1184164
-3.966678	band	-0.1184164
-5.400134	band's
-5.400134	band-aid
-5.400134	bandage
-5.400134	banded
-5.400134	banding
-5.400134	bandit
-4.019032	bands	-0.1454588
-5.045825	bandwagon	-0.1184164
-5.045825	bandwidth	-0.1184164
-5.400134	bane
-5.400134	banff
-5.045825	bang	-0.1184164
-5.400134	bang-up
-5.400134	banged
-5.400134	bangers
-5.400134	banging
-5.400134	bangla-
-5.400134	bangladesh
-5.400134	bangs
-5.400134	banish
-5.045825	banished	-0.1184164
-5.400134	banjo
-4.019032	bank	-0.1489606
-5.045825	bank's	-0.1184164
-5.400134	bank-
-5.400134	banked
-5.045825	banker	-0.1184164
-5.045825	bankers	-0.1184164
-4.828617	banking	-0.1184164
-4.828617	bankrupt	-0.1184164
-5.400134	bankruptcy
-5.400134	bankrupted
-5.400134	bankrupting
-5.045825	banks	-0.1184164
-5.400134	bann-
-4.463427	banned	-0.1184164
-5.400134	banner
-5.045825	banners	-0.1184164
-5.045825	banning	-0.1184164
-5.400134	banquet
-5.400134	banquets
-5.400134	bans
-5.045825	bantam	-0.1184164
-5.400134	bap
-5.400134	baptism
-5.400134	baptisms
-4.828617	baptist	-0.1184164
-5.400134	baptists
-4.654845	bar	-0.2051883
-5.400134	bar-
-5.400134	barb
-5.400134	barbados
-5.400134	barbar-
-5.400134	barbara
-5.045825	barbaric	-0.1184164
-5.400134	barbarics
-5.400134	barbe-
-5.400134	barbecue
-5.400134	barbecued
-5.400134	barbecueing
-5.400134	barbecues
-5.400134	barbed
-5.400134	barbells
-5.045825	barber	-0.1184164
-5.400134	barbie
-5.400134	barbies
-5.400134	barbiturates
-5.400134	barcelona
-5.400134	barden
-5.400134	bare
-5.400134	bare-
-5.400134	barefoot
-4.828617	barely	-0.1184164
-5.400134	bargain
-5.045825	bargained	-0.1184164
-5.400134	bargaining
-5.400134	bargains
-5.400134	barge
-5.400134	bargello
-5.400134	barges
-5.400134	baritone
-5.400134	barium
-4.463427	bark	-0.1683745
-5.400134	barker
-5.045825	barking	-0.1184164
-4.654845	barks	-0.1184164
-5.400134	barn
-5.045825	barney	-0.1184164
-5.400134	barns
-5.400134	barnyard
-5.400134	barometric
-5.400134	baron
-5.400134	baroque
-5.400134	barracuda
-5.400134	barred
-5.045825	barrel	-0.1184164
-4.828617	barrels	-0.1184164
-5.400134	barren
-5.400134	barricaded
-4.828617	barrier	-0.1184164
-5.400134	barriers
-5.400134	barring
-5.400134	barrio
-5.400134	barrios
-5.400134	barron
-5.045825	barron's	-0.1184164
-5.400134	barrow
-5.400134	barry
-4.828617	bars	-0.2560809
-5.400134	bart
-5.400134	bart's
-5.400134	barten-
-5.400134	bartender
-5.400134	bartenders
-5.045825	bartered	-0.1184164
-5.400134	barthelme
-5.400134	bartlett
-5.400134	bartman
-4.654845	bas-	-0.1184164
-3.771379	base	-0.1778197
-5.400134	base-
-4.654845	baseball	-0.1184164
-5.400134	baseball's
-5.400134	baseballer
-5.400134	baseballwise
-5.400134	baseboard
-5.400134	baseboards
-3.553391	based	-0.5785522
-5.400134	baseline
-5.400134	baseman
-5.400134	baseme-
-4.654845	basement	-0.1535049
-5.400134	basements
-5.045825	basenji	-0.1184164
-5.045825	basenjies	-0.1184164
-5.045825	baser	-0.1184164
-4.654845	bases	-0.1184164
-5.400134	bash
-5.400134	bashing
-5.045825	basi-	-0.1184164
-3.839347	basic	-0.1310163
-5.400134	basic-
-5.400134	basicall-
-3.241133	basically	-0.237995
-5.045825	basics	-0.1184164
-5.400134	basil
-5.045825	basin	-0.1184164
-5.400134	basing
-5.400134	basinger
-3.712622	basis	-0.194764
-5.045825	bask-	-0.1184164
-5.400134	basket
-5.400134	basket-
-4.331024	basketball	-0.1184164
-5.400134	basketball's
-5.400134	baskets
-5.400134	basque
-5.045825	bass	-0.1184164
-5.400134	basset
-5.400134	bassoon
-5.400134	bastard
-5.400134	bastards
-5.400134	bastion
-5.400134	bastrop
-5.045825	bat	-0.1184164
-5.400134	batch
-5.400134	batches
-5.400134	bates
-4.828617	bath	-0.1184164
-5.400134	bath-
-5.045825	bathe	-0.1184164
-5.400134	bathed
-5.400134	bathes
-5.400134	bathing
-4.331024	bathroom	-0.1596388
-5.400134	bathrooms
-5.400134	baths
-5.400134	bathtub
-5.400134	bathtubs
-5.400134	batman
-5.400134	baton
-5.400134	bats
-5.400134	batted
-5.400134	batter
-5.400134	batteries
-4.828617	battery	-0.1184164
-5.400134	batting
-4.828617	battle	-0.1184164
-5.400134	battled
-5.400134	battleground
-5.400134	battles
-4.828617	battling	-0.2560809
-5.400134	batty
-4.828617	baud	-0.1184164
-5.400134	baudelaire
-5.400134	bauhaus
-5.400134	bausch
-5.400134	bavarian
-5.400134	bawd
-5.400134	bawled
-5.400134	baxter
-4.654845	bay	-0.2051883
-5.400134	bay-
-5.400134	bayfield
-5.400134	bayless
-5.400134	bayliner
-5.045825	baylor	-0.1184164
-5.400134	baylor's
-5.400134	bayou
-5.400134	bays
-5.400134	bazaar
-5.400134	bazo
-5.400134	bbs
-2.934596	be	-0.2911038
-4.019032	be-	-0.1904359
-4.654845	beach	-0.1954391
-5.400134	beachcomber
-5.400134	beaches
-5.400134	beads
-5.400134	beagle
-5.400134	beam
-5.400134	beamer
-5.400134	beamers
-5.400134	beaming
-5.400134	beams
-5.400134	bean
-5.400134	bean's
-5.400134	beaner
-5.400134	beans
-4.654845	bear	-0.2051883
-5.400134	bearable
-5.400134	beard
-5.400134	beard's
-5.400134	beards
-5.045825	bearing	-0.1184164
-4.828617	bearings	-0.1596388
-5.400134	bears
-5.400134	beast
-5.400134	beastie
-4.229695	beat	-0.1535049
-5.045825	beaten	-0.1184164
-5.045825	beater	-0.1184164
-4.229695	beating	-0.2097171
-5.400134	beatings
-5.400134	beatle
-5.400134	beatles
-4.463427	beats	-0.1184164
-5.400134	beatty
-5.400134	beau-
-5.400134	beaucoup
-5.400134	beaumont
-5.400134	beauregard
-5.400134	beautician
-5.400134	beauticians
-4.331024	beautiful	-0.1184164
-5.400134	beautifully
-5.400134	beautify
-5.045825	beauty	-0.1184164
-5.400134	beaver
-5.400134	beavers
-5.400134	bebble
-5.400134	bebopping
-5.045825	bec-	-0.1184164
-5.400134	beca-
-4.147593	became	-0.1426775
-4.654845	becau-	-0.1184164
-2.351755	because	-0.7572926
-5.400134	becca
-5.400134	beck
-5.400134	becky
-5.400134	beco-
-3.712622	become	-0.184639
-3.966678	becomes	-0.1596388
-4.147593	becoming	-0.1184164
-3.966678	bed	-0.1596388
-5.400134	bed's
-5.400134	bed-
-5.400134	bedding
-5.400134	bedlam
-5.400134	bedpans
-5.400134	bedridden
-5.400134	bedroo-
-5.045825	bedroom	-0.1184164
-5.400134	bedroom's
-5.045825	bedrooms	-0.1184164
-5.045825	beds	-0.1184164
-5.400134	bedspread
-5.045825	bedtime	-0.1184164
-5.400134	bee
-5.400134	bee's
-5.045825	bee-	-0.1184164
-4.828617	beef	-0.1184164
-5.045825	beefed	-0.1184164
-5.400134	beefing
-5.400134	beeline
-3.049265	been	-0.3012266
-5.400134	beep
-5.400134	beeped
-5.400134	beeper
-5.400134	beepers
-5.400134	beeping
-5.400134	beeps
-4.654845	beer	-0.1184164
-4.828617	beers	-0.1184164
-5.045825	bees	-0.1184164
-5.400134	beet
-5.045825	beethoven	-0.1184164
-5.045825	beethoven's	-0.1184164
-5.400134	beetle
-5.400134	beetlejuice
-5.400134	beetles
-5.400134	beets
-5.400134	bef-
-5.400134	befalls
-5.400134	befitting
-5.400134	befo-
-2.921066	before	-0.4845792
-4.828617	beforehand	-0.1184164
-5.400134	befriended
-5.400134	befriends
-4.828617	beg	-0.1184164
-5.400134	begajah
-4.828617	began	-0.1184164
-5.400134	begats
-5.400134	begging
-5.400134	begi-
-4.331024	begin	-0.2305294
-5.400134	beginer's
-5.045825	beginner	-0.1184164
-5.045825	beginners	-0.1184164
-4.463427	beginning	-0.1454588
-5.400134	beginnings
-5.400134	begins
-5.400134	begonias
-5.045825	begrudge	-0.1184164
-5.400134	begun
-5.400134	behalf
-4.828617	behave	-0.1184164
-5.400134	behaved
-4.229695	behavior	-0.2097171
-5.045825	behavioral	-0.1184164
-5.400134	behaviors
-5.400134	behi-
-3.614645	behind	-0.1870433
-5.400134	behinds
-5.400134	behold
-5.400134	beholder
-5.045825	beholding	-0.1184164
-5.400134	behoove
-5.400134	bei-
-5.400134	beige
-5.400134	beijing
-3.055272	being	-0.2748833
-5.400134	being's
-4.828617	beings	-0.1184164
-5.400134	beirut
-5.400134	bel-
-5.400134	bel-air
-5.400134	belch
-5.400134	belcher
-5.400134	belching
-5.400134	belev
-5.400134	belfry
-5.400134	belgian
-5.400134	belgians
-5.400134	belgium
-5.400134	belie-
-4.654845	belief	-0.1184164
-5.045825	beliefs	-0.1184164
-5.400134	believable
-3.712622	believe	-0.2729728
-4.828617	believed	-0.1184164
-4.828617	believer	-0.256081
-4.828617	believes	-0.1184164
-5.045825	believing	-0.1184164
-5.400134	belittled
-5.400134	belittling
-5.400134	belize
-4.828617	bell	-0.1184164
-5.400134	bellcore
-5.400134	belle
-5.400134	bellies
-5.400134	belligerent
-5.400134	bells
-4.828617	belly	-0.256081
-5.400134	bellyache
-5.400134	belon-
-4.463427	belong	-0.4504039
-5.400134	belonged
-5.400134	belonging
-5.400134	belongings
-5.045825	belongs	-0.1184164
-5.400134	belorussia
-4.331024	below	-0.2097172
-4.463427	belt	-0.1184164
-5.400134	belted
-5.400134	beltin
-5.045825	belting	-0.1184164
-5.400134	beltline
-5.400134	belton
-5.400134	belts
-5.045825	beltway	-0.1184164
-5.400134	belva
-5.400134	bemerton
-5.045825	ben	-0.1184164
-5.400134	ben-
-5.400134	benadryl
-4.828617	bench	-0.1184164
-5.400134	benches
-5.400134	benchley
-5.045825	benchmarked	-0.1184164
-5.400134	bend
-5.400134	bender
-5.400134	benders
-5.045825	bending	-0.1184164
-5.400134	bendix
-5.045825	bends	-0.1184164
-5.400134	bene-
-5.400134	beneath
-5.400134	benedict
-5.400134	benef-
-4.828617	beneficial	-0.1184164
-5.400134	beneficiary
-3.685979	benefit	-0.2012098
-5.400134	benefited
-5.400134	benefiting
-3.333875	benefits	-0.2782041
-5.400134	benefitted
-5.400134	bengals
-5.400134	benign
-5.400134	benihana's
-5.400134	benji
-5.400134	bennett
-5.045825	bennie	-0.1184164
-5.400134	bennigan's
-5.400134	benning-
-5.400134	bennington
-5.400134	benny
-5.400134	benny's
-5.400134	benson
-5.045825	bent	-0.1184164
-5.400134	bentsen
-5.400134	benyak
-5.400134	benz
-5.400134	benzes
-5.400134	ber-
-5.400134	berating
-5.400134	berbar
-5.400134	berber
-5.400134	beret
-5.400134	beretta
-5.400134	bergen
-5.045825	berkeley	-0.1184164
-5.400134	berkner
-5.400134	berle
-5.400134	berlin
-5.400134	bermuda
-5.400134	bermuda's
-5.400134	bern
-5.400134	bernardino
-5.400134	bernards
-5.400134	berne
-5.400134	bernie
-5.400134	bernie's
-5.400134	berries
-4.828617	berry	-0.1184164
-5.400134	berry's
-5.400134	berserk
-5.400134	bertinelli
-4.828617	beside	-0.1184164
-4.147593	besides	-0.1904359
-5.400134	besieged
-3.741008	best	-0.153734
-5.400134	best-seller
-5.400134	bestes-
-5.400134	bestowed
-4.463427	bet	-0.1980621
-5.400134	bet-
-5.400134	beta
-5.400134	betcha
-5.400134	beth
-5.400134	bethany
-5.400134	bethesda
-5.400134	bets
-5.400134	bett-
-5.400134	bette
-3.172606	better	-0.2598828
-5.400134	betters
-5.400134	betting
-5.400134	bettle
-5.400134	betty
-3.269901	between	-0.236288
-5.400134	beuerlein
-5.400134	beuerlein's
-5.400134	bev
-5.400134	bevelled
-4.828617	beverage	-0.1184164
-4.828617	beverages	-0.1184164
-5.400134	beverly
-5.400134	beware
-5.400134	bewildered
-5.400134	bewitched
-3.877787	beyond	-0.2322806
-5.400134	bi-
-5.045825	bi-level	-0.1184164
-4.654845	bias	-0.1184164
-5.400134	biase-
-4.463427	biased	-0.1184164
-5.400134	biasedly
-4.828617	biases	-0.1184164
-5.400134	bib
-5.045825	bible	-0.1184164
-5.400134	bible's
-5.045825	bibles	-0.1184164
-4.828617	biblical	-0.1184164
-5.400134	bibliography
-5.400134	bibs
-5.045825	bic	-0.1184164
-5.400134	bicentennial
-5.400134	bicep
-5.045825	bichon	-0.1184164
-5.400134	bichons
-5.045825	bickering	-0.1184164
-3.966678	bicycle	-0.1635878
-5.400134	bicycled
-5.400134	bicycler
-4.828617	bicycles	-0.1184164
-4.828617	bicycling	-0.1184164
-5.400134	bicycling's
-5.400134	bicyclist
-5.045825	bid	-0.1184164
-5.045825	bidder	-0.1184164
-5.400134	bidding
-5.400134	bide
-5.045825	biding	-0.1184164
-5.400134	bidness
-5.400134	bids
-5.400134	biejo
-5.400134	biffin's
-5.400134	bifocals
-5.400134	bifocers
-5.400134	bifricated
-3.188751	big	-0.1915511
-5.400134	big-
-5.400134	bigge-
-3.685979	bigger	-0.155753
-4.828617	biggest	-0.1184164
-5.400134	biggie
-5.045825	biggies	-0.1184164
-5.400134	bighorn
-5.045825	bighorns	-0.1184164
-5.400134	bigoted
-4.828617	bike	-0.1184164
-5.400134	biked
-5.400134	biker
-5.400134	bikers
-4.654845	bikes	-0.1184164
-5.400134	biking
-5.400134	bilin-
-5.400134	bilingual
-5.400134	bilingualism
-5.400134	bilk
-3.660877	bill	-0.2372288
-5.400134	bill's
-5.400134	billboard
-5.400134	billboards
-5.400134	billed
-5.400134	billfold
-5.400134	billiard
-5.400134	billing
-5.400134	billings
-4.463427	billion	-0.236183
-5.045825	billions	-0.1184164
-3.741008	bills	-0.2731742
-5.400134	billy
-5.045825	biloxi	-0.1184164
-5.400134	bim
-5.400134	bimbo
-5.045825	bimetal	-0.1184164
-5.400134	bimonthly
-4.019032	bin	-0.1454588
-5.400134	binary
-5.045825	bind	-0.1184164
-5.400134	binders
-5.400134	binding
-5.400134	binds
-5.400134	biness
-5.400134	binesses
-5.045825	bing	-0.1184164
-5.400134	binge
-5.400134	binges
-5.400134	bingo
-5.400134	binoculars
-3.877787	bins	-0.1894683
-5.400134	bio-
-5.045825	biochemical	-0.1184164
-5.400134	biodegr-
-4.654845	biodegradable	-0.1184164
-5.400134	biodegrade
-5.045825	biodegrading	-0.1184164
-5.400134	biogra-
-5.400134	biographer
-5.400134	biographies
-5.400134	biography
-5.045825	biological	-0.1184164
-5.400134	biologically
-5.400134	biologist
-5.400134	biology
-5.400134	biomedical
-5.045825	biotech	-0.1184164
-5.400134	bir-
-5.400134	biraporetti's
-5.400134	birch
-4.654845	bird	-0.1683745
-5.400134	bird's
-5.400134	birdie
-5.045825	birds	-0.1184164
-5.400134	birkner
-5.400134	birmingham
-4.828617	birth	-0.1184164
-5.400134	birth-
-4.147593	birthday	-0.1954391
-5.400134	birthday's
-4.463427	birthdays	-0.1683745
-5.400134	birthing
-5.400134	biscuits
-5.400134	bishu
-5.400134	bison
-5.400134	bisque
-5.400134	bisquick
-3.877787	bit	-0.1566201
-5.045825	bitch	-0.1184164
-5.400134	bite
-5.045825	bites	-0.1184164
-4.654845	biting	-0.1184164
-5.400134	bitish
-5.400134	bits
-5.400134	bittel
-5.400134	bitten
-5.045825	bitter	-0.1184164
-5.400134	bitterest
-5.400134	bitterly
-5.400134	bitterness
-5.400134	bittersweet
-5.045825	bitty	-0.1184164
-5.400134	biweekly
-5.400134	biz
-4.654845	bizarre	-0.1683745
-5.400134	bizmart
-5.400134	bizzaro
-5.400134	bl-
-3.771379	black	-0.1184164
-5.400134	black-eyed
-5.400134	blackball
-5.400134	blackberries
-5.400134	blackberry
-5.400134	blackened
-5.400134	blackening
-5.400134	blackens
-5.400134	blackeyed
-5.400134	blackfoot
-5.400134	blackish
-5.400134	blacklist
-4.828617	blackmail	-0.1184164
-5.400134	blackman
-5.400134	blackouts
-5.045825	blacks	-0.1184164
-5.400134	blacksburg
-5.400134	blacksmith
-5.400134	blackwoods
-5.045825	blade	-0.1184164
-5.045825	blades	-0.1184164
-5.045825	blading	-0.1184164
-5.400134	blah
-5.400134	blair
-5.400134	blake
-4.229695	blame	-0.2422089
-5.045825	blamed	-0.1184164
-5.400134	blames
-5.400134	blaming
-5.400134	blanchard
-5.400134	blanche
-5.400134	blanco
-5.400134	bland
-4.828617	blank	-0.1184164
-5.400134	blank's
-5.400134	blanket
-5.400134	blankets
-5.400134	blanking
-5.045825	blanks	-0.1184164
-5.400134	blase
-5.400134	blasphemy
-5.045825	blast	-0.1184164
-5.400134	blasted
-5.400134	blasters
-5.400134	blasting
-4.828617	blatant	-0.1184164
-5.400134	blatantly
-5.400134	blaze
-5.400134	blazer
-5.400134	blazers
-5.400134	blazey
-5.400134	blazing
-5.045825	bleach	-0.1184164
-5.045825	bleached	-0.1184164
-5.045825	bleacher	-0.1184164
-5.400134	bleachers
-5.400134	bleaching
-5.400134	bleak
-5.400134	bled
-5.400134	bleed
-5.400134	bleeding
-5.400134	bleeds
-5.400134	bleep
-5.400134	blend
-5.400134	blended
-5.400134	blender
-5.400134	blenders
-5.400134	blending
-4.828617	bless	-0.2560809
-4.828617	blessed	-0.1184164
-5.400134	blesses
-5.400134	blessing
-5.045825	blessings	-0.1184164
-5.400134	bleu
-4.463427	blew	-0.1818167
-5.045825	blind	-0.1184164
-5.400134	blinded
-5.400134	blinders
-5.400134	blindfold
-5.400134	blindly
-5.400134	blinds
-5.400134	blindsided
-5.400134	blink
-5.400134	blinked
-5.400134	blinking
-5.400134	blip
-5.400134	bliss
-5.400134	blissful
-5.400134	blistering
-5.400134	blisters
-5.400134	blithe
-5.400134	blitz
-5.400134	blitzer
-5.400134	blizzard
-5.400134	blo-
-5.400134	blob
-4.828617	block	-0.1184164
-5.400134	blockbuster
-5.400134	blockbuster's
-5.400134	blockbusters
-5.045825	blocking	-0.1184164
-5.045825	blocks	-0.1184164
-5.400134	blonde
-5.400134	blondie
-5.045825	bloo-	-0.1184164
-4.078573	blood	-0.1454588
-5.400134	blooded
-5.400134	bloodhound
-5.400134	bloodier
-5.400134	bloodless
-5.400134	bloodshed
-5.400134	bloodstream
-5.400134	bloodthirsty
-5.400134	bloody
-5.045825	bloom	-0.1184164
-5.400134	bloomed
-5.400134	bloomers
-5.400134	blooming
-5.400134	blooms
-5.400134	bloopers
-5.045825	blossom	-0.1184164
-5.400134	blossomed
-5.400134	blossoming
-5.400134	blossoms
-5.400134	blouse
-5.400134	blouses
-4.828617	blow	-0.1184164
-5.400134	blow's
-5.400134	blower
-5.400134	blowers
-5.045825	blowing	-0.1184164
-4.463427	blown	-0.1184164
-5.400134	blowout
-5.400134	blowouts
-5.400134	blows
-5.400134	blowup
-5.400134	blowy
-3.771379	blue	-0.2064774
-5.400134	blueberries
-5.400134	blueberry
-5.400134	bluebonnets
-5.400134	bluegrass
-5.400134	blueprints
-4.331024	blues	-0.1742975
-5.400134	bluesy
-5.400134	bluffed
-5.400134	bluish-gray
-5.400134	blunt
-5.400134	bluntly
-4.828617	blurb	-0.1184164
-5.045825	blurbs	-0.1184164
-5.400134	blurred
-5.400134	bly
-5.400134	blythe
-5.400134	bo
-5.400134	bo's
-5.045825	bo-	-0.1184164
-5.400134	boa
-5.400134	boar
-4.463427	board	-0.1426775
-5.045825	board's	-0.1184164
-5.400134	boarded
-5.045825	boarding	-0.1184164
-4.654845	boards	-0.1184164
-5.400134	boardwalk
-5.400134	boast
-5.400134	boastful
-4.331024	boat	-0.1184164
-5.400134	boated
-4.654845	boating	-0.1184164
-4.828617	boats	-0.1184164
-5.045825	bob	-0.1184164
-5.400134	bobber
-5.400134	bobbie
-5.400134	bobby
-5.400134	bobrank
-5.400134	bobsy
-5.400134	boca
-5.400134	bocket
-5.400134	bod-
-5.045825	bodied	-0.1184164
-4.828617	bodies	-0.1184164
-5.045825	bodily	-0.1184164
-4.019032	body	-0.132523
-5.400134	body's
-5.045825	boeing	-0.1184164
-5.400134	bog
-5.400134	bogart's
-5.400134	bogey
-5.400134	bogg-
-5.400134	bogged
-5.400134	boggled
-5.400134	boggles
-5.400134	boggling
-4.828617	bogus	-0.1184164
-5.400134	bogused
-5.400134	bohemian
-5.400134	boil
-5.400134	boiled
-5.400134	boilerhouse
-5.400134	boilermaker
-5.400134	boiling
-5.400134	boils
-5.045825	boings	-0.1184164
-5.400134	boise
-5.400134	bol-
-5.400134	bold
-5.400134	bolivia
-5.400134	bollfield
-5.400134	bologna
-5.400134	bolshevik
-5.400134	bolt
-5.045825	bolted	-0.1184164
-5.045825	bolton	-0.1184164
-4.828617	bolts	-0.1184164
-5.045825	bomb	-0.1184164
-5.400134	bombarded
-5.400134	bombarding
-5.400134	bombay
-5.400134	bombay's
-5.400134	bombeck
-5.400134	bombeck's
-5.400134	bombecks
-5.045825	bombed	-0.1184164
-5.045825	bomber	-0.1184164
-5.400134	bombers
-5.045825	bombing	-0.1184164
-5.400134	bombing's
-5.400134	bombings
-5.045825	bombs	-0.1184164
-5.400134	bon
-5.400134	bonaducci
-5.400134	bonafide
-5.400134	bonanza
-5.045825	bond	-0.1184164
-5.400134	bondage
-5.400134	bonded
-5.045825	bonding	-0.1184164
-4.331024	bonds	-0.3606564
-5.045825	bone	-0.1184164
-5.400134	boneless
-5.045825	bones	-0.1184164
-5.400134	bonfire
-5.400134	bong
-5.045825	bongo	-0.1184164
-5.400134	bonham
-5.400134	bonilla
-5.400134	bonkers
-5.400134	bonneville
-5.400134	bonnie
-5.400134	bonny
-5.045825	bonus	-0.1184164
-5.045825	bonuses	-0.1184164
-5.400134	bonzo
-4.828617	boo	-0.1184164
-5.400134	boo-
-5.400134	booby
-5.400134	booey
-5.400134	booger
-3.771379	book	-0.169618
-5.400134	book's
-5.400134	bookcase
-5.400134	bookcases
-5.400134	booked
-5.400134	bookends
-5.400134	bookkeeper
-5.400134	bookkeepers
-5.400134	bookkeeping
-5.400134	bookl-
-5.400134	booklet
-5.400134	booklets
-5.400134	bookmobile
-4.078573	books	-0.2422089
-5.400134	booksellers
-5.400134	bookshelf
-5.400134	bookshelves
-5.400134	bookstop
-5.045825	bookstore	-0.1184164
-5.400134	bookstores
-5.400134	bookworm
-4.828617	boom	-0.1184164
-5.045825	boomer	-0.1184164
-5.400134	boomerang
-5.400134	boomers
-5.400134	booming
-5.400134	boon
-5.400134	boondocks
-5.045825	boondoggle	-0.1184164
-5.400134	boonies
-4.828617	boost	-0.1184164
-5.045825	booster	-0.1184164
-5.045825	boosters	-0.1184164
-5.045825	boosts	-0.1184164
-5.400134	boot
-5.045825	booted	-0.1184164
-4.654845	booth	-0.1184164
-5.400134	booths
-5.400134	bootleg
-5.400134	bootlegs
-5.400134	boots
-5.400134	bootstrap
-5.400134	bootstraps
-5.400134	booze
-5.400134	boozier
-5.400134	bor-
-5.400134	borden
-4.654845	border	-0.1184164
-5.400134	bordering
-5.400134	borderline
-5.045825	borders	-0.1184164
-4.828617	bore	-0.1184164
-4.828617	bored	-0.1184164
-5.400134	boredom
-5.400134	borger
-4.229695	boring	-0.236183
-5.400134	boris
-4.147593	born	-0.2208524
-5.400134	borough
-5.400134	boroughs
-5.045825	borr-	-0.1184164
-5.045825	borrow	-0.1184164
-4.654845	borrowed	-0.1184164
-5.400134	borrower
-4.229695	borrowing	-0.1489606
-5.400134	bos-
-5.400134	bosch
-5.400134	bosom
-4.654845	boss	-0.1184164
-5.400134	boss'
-5.045825	boss's	-0.1184164
-5.400134	bosses
-4.229695	boston	-0.1454588
-5.400134	boston's
-5.400134	bostonian
-5.400134	botanical
-5.400134	botched
-3.260098	both	-0.2547073
-5.400134	both-
-3.966678	bother	-0.2534311
-4.331024	bothered	-0.2305294
-4.828617	bothering	-0.1184164
-4.463427	bothers	-0.4504039
-5.400134	bothersome
-5.400134	bott-
-4.331024	bottle	-0.1184164
-5.400134	bottled
-5.400134	bottlers
-3.593252	bottles	-0.2512466
-5.400134	bottling
-5.045825	bottom	-0.1184164
-5.400134	bottomed
-5.400134	bottoming
-5.400134	bottomless
-5.400134	bottoms
-5.045825	bough-	-0.1184164
-3.614645	bought	-0.3062178
-5.400134	boughten
-5.400134	bouillon
-5.400134	boulder
-5.400134	boulders
-5.400134	boule
-5.400134	boulevard
-5.400134	bounce
-5.045825	bounced	-0.1184164
-5.400134	bouncer
-5.400134	bounces
-5.045825	bouncing	-0.1184164
-5.400134	bouncy
-4.828617	bound	-0.1184164
-5.045825	boundaries	-0.1184164
-5.045825	boundary	-0.1184164
-5.400134	bounded
-5.045825	bounds	-0.1184164
-5.400134	bountiful
-5.400134	bourgeoisie
-5.400134	bourguignonne
-5.400134	bourne
-5.400134	bout
-5.400134	boutique
-5.400134	boutiques
-5.400134	bow
-5.400134	bow-
-5.400134	bowden
-5.400134	bowdoin
-5.400134	bowed
-5.400134	bowel
-5.400134	bowes
-5.400134	bowie
-5.400134	bowie's
-4.654845	bowl	-0.1596388
-5.400134	bowl's
-5.400134	bowled
-5.400134	bowlers
-5.400134	bowling
-5.400134	bowls
-4.828617	bows	-0.1184164
-4.828617	box	-0.1184164
-5.045825	box-	-0.1184164
-5.400134	boxed
-5.045825	boxer	-0.1184164
-5.045825	boxes	-0.1184164
-5.400134	boxing
-5.400134	boxwood
-5.400134	boxy
-3.839347	boy	-0.2232555
-5.400134	boy's
-4.828617	boyfriend	-0.1184164
-5.400134	boyfriend's
-5.400134	boyfriends
-4.078573	boys	-0.1658266
-5.400134	boys'
-5.400134	boys'll
-5.400134	bozo
-4.654845	br-	-0.1184164
-5.400134	bra
-5.400134	bra-
-5.400134	brace
-5.400134	braced
-5.400134	bracelet
-5.400134	braces
-5.400134	bracing
-4.654845	bracket	-0.1184164
-5.400134	brackets
-5.400134	brackish
-5.400134	brackman
-5.400134	brackman's
-5.400134	brad
-5.400134	bradford
-5.400134	bradford's
-5.400134	bradley
-5.400134	bradshaw
-5.400134	bradshaw's
-5.400134	bradstreet
-5.400134	brady
-5.400134	brag
-5.400134	bragging
-5.400134	brags
-5.045825	brahms	-0.1184164
-4.654845	brain	-0.1184164
-5.400134	brain's
-5.045825	brains	-0.1184164
-5.400134	brainstorm
-5.045825	brainstorming	-0.1184164
-4.828617	brainwash	-0.1184164
-5.400134	brainwashed
-5.400134	brainwashing
-4.463427	brake	-0.2637464
-4.654845	brakes	-0.1184164
-5.400134	bramalea
-5.400134	bran
-4.828617	branch	-0.1184164
-5.400134	branched
-5.400134	branches
-5.400134	branching
-4.463427	brand	-0.2637464
-5.400134	branded
-5.400134	brandeis
-5.400134	brando
-5.045825	brands	-0.1184164
-5.400134	braniff
-5.400134	brannigan
-5.400134	branson
-5.400134	bras
-5.400134	brash
-5.045825	brass	-0.1184164
-5.400134	brat
-5.045825	brats	-0.1184164
-5.045825	braun	-0.1184164
-5.400134	braunfels
-5.400134	braunsfel
-5.400134	brave
-5.400134	braved
-5.400134	braves
-5.400134	brawn
-5.400134	brazen
-5.400134	braziers
-5.400134	brazil
-5.400134	brazilian
-5.400134	brazos
-5.400134	brea-
-5.400134	breach
-5.400134	breached
-5.045825	bread	-0.1184164
-5.400134	breaded
-5.400134	breading
-5.400134	breads
-5.400134	breadwinner
-3.741008	break	-0.2354402
-5.400134	break's
-4.331024	break-ins	-0.1184164
-5.400134	breakable
-5.045825	breakage	-0.1184164
-5.045825	breakdown	-0.1184164
-5.400134	breakdowns
-5.400134	breaker
-5.400134	breakers
-5.400134	breakfa-
-4.654845	breakfast	-0.1683745
-5.400134	breakfasts
-4.229695	breaking	-0.1596388
-5.400134	breakouts
-4.229695	breaks	-0.1535049
-5.400134	breakthrough
-5.400134	breakthroughs
-4.828617	breakup	-0.2560809
-5.400134	bream
-5.400134	breast
-5.400134	breasted
-5.400134	breasts
-5.045825	breath	-0.1184164
-5.400134	breathe
-5.400134	breathed
-5.400134	breathes
-5.045825	breathing	-0.1184164
-5.045825	breathless	-0.1184164
-5.400134	breathtaking
-5.400134	breckenridge
-4.463427	bred	-0.2305294
-5.400134	bree-
-5.045825	breed	-0.1184164
-5.400134	breeder
-5.400134	breeders
-5.400134	breeding
-4.828617	breeds	-0.1184164
-5.400134	breeze
-5.400134	breezed
-5.400134	breezes
-5.400134	breezeway
-5.400134	brennan's
-5.400134	brent
-5.400134	brett
-5.400134	breun
-5.400134	brew
-5.400134	brew-
-5.400134	brewed
-5.400134	brewer
-5.400134	brewers
-5.400134	brewery
-5.400134	brewing
-5.400134	breyiana
-5.400134	bri-
-4.828617	brian	-0.1184164
-5.400134	brian's
-5.400134	brianna
-5.400134	bribe
-5.400134	briberies
-5.400134	bribery
-5.045825	brick	-0.1184164
-5.045825	bricks	-0.1184164
-5.400134	bridal
-5.400134	bride
-5.400134	bride's
-5.400134	bridesmaid
-5.400134	bridesmaids
-4.654845	bridge	-0.1184164
-5.400134	bridgeport
-5.045825	bridges	-0.1184164
-5.400134	bridget
-5.400134	bridgette
-5.045825	brief	-0.1184164
-5.400134	briefcase
-5.400134	briefcases
-5.045825	briefly	-0.1184164
-5.400134	briefs
-5.400134	brigette
-5.045825	brigham	-0.1184164
-4.828617	bright	-0.1184164
-5.400134	brighten
-5.400134	brightens
-5.400134	brighter
-5.400134	brightest
-5.045825	brightly	-0.1184164
-5.400134	brighton
-5.400134	brilliance
-5.400134	brilliant
-5.400134	brim
-3.637146	bring	-0.2610369
-5.400134	bringham
-4.828617	bringing	-0.2560809
-4.331024	brings	-0.2248356
-5.400134	brink
-5.400134	brinkley
-5.400134	brinkley's
-5.400134	brisk
-5.400134	brisket
-5.400134	briskly
-5.400134	bristol
-5.400134	brit's
-5.045825	britain	-0.1184164
-5.400134	britches
-5.045825	british	-0.1184164
-5.400134	british's
-5.400134	brits
-5.045825	brittany	-0.1184164
-5.400134	brittle
-5.400134	bro-
-5.045825	broacher	-0.1184164
-4.463427	broad	-0.1184164
-5.400134	broad-
-4.654845	broadcast	-0.1184164
-5.400134	broadcasting
-4.828617	broadcasts	-0.1184164
-5.400134	broaden
-5.400134	broadened
-5.045825	broader	-0.1184164
-5.400134	broadmoor
-5.045825	broadway	-0.1184164
-5.400134	broccoli
-5.400134	broccolis
-5.400134	brochco
-5.045825	brochure	-0.1184164
-5.045825	brochures	-0.1184164
-5.400134	broderick
-5.400134	broderick's
-5.400134	brodie
-5.400134	broil
-5.400134	broiled
-5.400134	brokaw
-4.331024	broke	-0.2248356
-4.019032	broken	-0.1683745
-5.045825	broker	-0.1184164
-5.400134	brokerage
-5.400134	brokering
-5.400134	brokers
-5.400134	bronco
-5.400134	broncos
-5.400134	bronoff
-5.045825	bronx	-0.1184164
-5.400134	bronze
-5.400134	brook
-5.400134	brook-
-5.400134	brookhaven
-5.400134	brookies
-5.400134	brooklyn
-5.045825	brooks	-0.1184164
-5.400134	brooks'
-5.400134	brookshires
-5.400134	brooksville
-5.400134	broth
-5.400134	broth-
-4.331024	brother	-0.1596388
-5.400134	brother'll
-5.045825	brother's	-0.1184164
-5.045825	brother-in-law	-0.1184164
-5.400134	brother-in-law's
-5.400134	brother-in-laws
-5.400134	brotherhood
-4.331024	brothers	-0.3606564
-5.400134	brothers'
-5.400134	brothers-in-law
-5.400134	broudigan
-5.400134	brougham
-3.660877	brought	-0.2279738
-5.400134	brouhaha
-5.400134	brow
-5.400134	brow-
-5.400134	browbeat
-4.229695	brown	-0.1184164
-5.400134	brown's
-5.400134	browned
-5.400134	brownfield
-4.828617	brownie	-0.1184164
-5.400134	brownies
-5.400134	brownish
-5.400134	brownnoser
-5.400134	browns
-5.400134	brownstone
-5.400134	brownsville
-5.400134	brownwood
-5.400134	browse
-5.400134	bruce
-5.400134	bruises
-5.400134	brunch
-5.400134	brunches
-5.400134	bruno
-5.400134	brunswick
-5.400134	brunt
-5.045825	brush	-0.1184164
-5.400134	brushed
-5.400134	brushes
-5.400134	brushing
-5.400134	brussels
-4.828617	brutal	-0.1184164
-5.400134	brutality
-5.400134	brutalizes
-5.400134	brutalizing
-5.400134	brutally
-5.400134	brutish
-4.828617	bryan	-0.1184164
-5.400134	bryan's
-5.400134	bryant
-5.400134	bryce
-5.045825	bryn	-0.1184164
-5.400134	bs
-5.400134	bsing
-5.400134	bu
-4.331024	bu-	-0.1596388
-4.828617	bubble	-0.1184164
-5.400134	bubbles
-5.400134	bubbling
-5.400134	buccaneers
-4.654845	buchanan	-0.1184164
-5.045825	buck	-0.1184164
-5.400134	buck-
-4.828617	bucket	-0.2560809
-5.400134	bucketfulls
-5.045825	buckets	-0.1184164
-5.400134	buckle
-5.400134	buckles
-5.400134	bucknell
-5.400134	buckner
-5.400134	bucko
-3.877787	bucks	-0.1978621
-5.045825	bud	-0.1184164
-5.400134	bud's
-5.400134	buddies
-5.400134	budding
-4.828617	buddy	-0.1184164
-5.400134	budg-
-3.311487	budget	-0.2441791
-5.400134	budget's
-5.400134	budgetary
-4.828617	budgeted	-0.1184164
-3.877787	budgeting	-0.1369573
-4.331024	budgets	-0.1184164
-5.400134	buds
-5.400134	bue-
-5.400134	buechele
-5.400134	bueno
-5.400134	bueno's
-5.400134	buenos
-5.400134	buff
-4.828617	buffalo	-0.1184164
-5.400134	buffalo's
-5.400134	buffaloes
-5.400134	buffer
-5.400134	buffers
-5.400134	buffet
-5.400134	buffets
-5.400134	buffs
-5.400134	buffy
-5.400134	bug
-5.400134	bug's
-5.400134	bugged
-5.400134	bugging
-5.400134	buggy
-4.828617	bugs	-0.2560809
-5.400134	bugsy
-5.045825	buick	-0.1184164
-5.045825	buicks	-0.1184164
-5.045825	buil-	-0.1184164
-3.919962	build	-0.1344389
-5.400134	builder
-5.400134	builder's
-5.400134	builders
-5.400134	buildi-
-3.804034	building	-0.1696181
-5.400134	building's
-4.828617	buildings	-0.1184164
-4.828617	builds	-0.1184164
-3.839347	built	-0.1184164
-5.400134	built-in
-5.400134	bulb
-5.400134	bulbs
-5.400134	bulch
-5.400134	bulgaria
-5.400134	bulge
-5.400134	bulging
-5.400134	bulimic
-5.045825	bulk	-0.1184164
-5.045825	bulkiness	-0.1184164
-5.400134	bulky
-4.828617	bull	-0.2051883
-5.400134	bull-
-5.045825	bulldogs	-0.1184164
-5.400134	bulldozed
-5.400134	bulldozers
-5.045825	bullet	-0.1184164
-5.400134	bullet's
-4.654845	bulletin	-0.2051883
-5.400134	bulletins
-5.400134	bulletproof
-5.400134	bullets
-5.400134	bullheads
-5.400134	bullies
-5.400134	bullion
-5.400134	bullpen
-5.045825	bulls	-0.1184164
-5.400134	bullshit
-5.400134	bully
-5.400134	bullying
-5.045825	bulow	-0.1184164
-5.400134	bulows
-5.400134	bulverde
-5.045825	bum	-0.1184164
-5.400134	bumble
-5.400134	bumbling
-5.400134	bummed
-5.400134	bummer
-5.045825	bump	-0.1184164
-5.045825	bumped	-0.1184164
-5.400134	bumper
-5.400134	bumpers
-5.400134	bumping
-5.045825	bums	-0.1184164
-5.400134	bun
-5.400134	bun-
-4.654845	bunch	-0.2637464
-5.400134	bunches
-5.400134	bunching
-5.400134	bunchy
-5.045825	bundle	-0.1184164
-5.045825	bundled	-0.1184164
-5.400134	bundles
-4.828617	bundy	-0.1184164
-5.400134	bundy's
-5.400134	bungling
-5.400134	bungy
-5.400134	bunk
-5.400134	bunker
-5.400134	bunnies
-5.400134	bunny
-5.400134	bunny's
-5.400134	buns
-5.400134	bunting
-5.400134	bur
-5.400134	bur-
-4.463427	burden	-0.1184164
-5.400134	burden's
-5.400134	burdened
-5.400134	burdening
-5.400134	burdensome
-5.400134	bureau
-5.400134	bureauc-
-5.045825	bureaucracies	-0.1184164
-4.019032	bureaucracy	-0.2097172
-5.045825	bureaucratic	-0.1184164
-5.400134	bureaucratics
-4.828617	bureaucrats	-0.2560809
-5.400134	bureaus
-5.400134	burford
-5.400134	burgalies
-5.400134	burgeoning
-5.400134	burger
-5.400134	burgers
-5.045825	burglar	-0.1184164
-5.045825	burglaries	-0.1184164
-5.400134	burglarize
-5.045825	burglars	-0.1184164
-4.828617	burglary	-0.1184164
-5.400134	burgled
-5.400134	burgling
-5.400134	burgundy
-5.400134	burgurlaries
-5.400134	burial
-5.400134	buried
-5.400134	burke
-5.400134	burkhalter
-5.400134	burlap
-5.400134	burlington
-5.400134	burlington's
-5.045825	burmese	-0.1184164
-4.331024	burn	-0.1184164
-5.400134	burnable
-4.828617	burned	-0.1184164
-5.400134	burner
-5.045825	burners	-0.1184164
-5.400134	burnette
-4.828617	burning	-0.1184164
-5.045825	burns	-0.1184164
-5.400134	burnt
-5.400134	burpee
-5.400134	burping
-5.400134	burrito
-5.400134	burritos
-5.400134	burroughs
-5.400134	burrows
-5.400134	burst
-5.400134	bursts
-5.400134	burt
-5.400134	burton
-5.400134	burton's
-4.828617	bury	-0.1184164
-5.400134	burying
-5.045825	bus	-0.1184164
-5.400134	bus-
-5.400134	busboys
-5.400134	busch
-4.828617	buses	-0.1184164
-4.078573	bush	-0.1184164
-4.463427	bush's	-0.1184164
-5.400134	bushel
-5.400134	bushes
-5.400134	bushings
-5.400134	bushwack
-5.400134	busier
-5.400134	busiest
-5.400134	busily
-3.483206	business	-0.2530708
-3.966678	businesses	-0.1404151
-5.400134	businesslike
-5.400134	businessman
-5.045825	businessmen	-0.1184164
-5.045825	busing	-0.1184164
-5.400134	bussed
-5.400134	busses
-5.400134	bust
-5.045825	busted	-0.1184164
-5.400134	buster
-5.400134	buster's
-5.400134	busters
-5.400134	busting
-5.400134	bustly
-3.966678	busy	-0.1581873
-2.055423	but	-0.8263823
-5.400134	butcher
-5.400134	butcher's
-5.400134	butkis
-5.400134	butler
-5.400134	buts
-5.400134	butt
-5.400134	butt-
-5.400134	butte
-4.828617	butter	-0.1184164
-5.400134	buttercup
-5.400134	buttered
-5.045825	butterflies	-0.1184164
-5.045825	butterfly	-0.1184164
-5.400134	buttermilk
-4.463427	button	-0.1596388
-5.400134	button-down
-5.400134	buttoned
-5.400134	buttonholes
-5.045825	buttons	-0.1184164
-5.400134	butts
-3.395483	buy	-0.3162407
-5.400134	buyer
-5.400134	buyer's
-5.400134	buyers
-3.712622	buying	-0.2042886
-4.828617	buys	-0.1184164
-5.045825	buzz	-0.1184164
-5.400134	buzzards
-5.400134	buzzer
-5.045825	buzzers	-0.1184164
-2.64944	by	-0.3512749
-5.400134	by-
-4.828617	bye	-0.1184164
-5.400134	bye-bye
-5.400134	byline
-5.400134	bypass
-5.400134	bypassed
-5.400134	byron
-5.400134	bystandard
-5.400134	bystander
-5.400134	byte
-5.045825	bytes	-0.1184164
-5.400134	byzantine
-3.614645	c-	-0.1350021
-4.828617	c-span	-0.1184164
-5.400134	c-spans
-4.654845	c.	-0.1184164
-5.400134	c.'s
-5.400134	c._b.
-5.400134	c._c.'s
-5.045825	c._c._c.	-0.1184164
-4.828617	c._d.	-0.1184164
-5.400134	c._d.'s
-5.045825	c._d._c.	-0.1184164
-5.400134	c._d.s
-5.400134	c._e._o.
-5.400134	c._e._o.s
-5.400134	c._e._t.
-5.400134	c._f._c.
-5.400134	c._f._c.'s
-5.400134	c._f._c.s
-5.400134	c._i._a.
-4.654845	c._m._u.	-0.2051883
-5.045825	c._n._b._c.	-0.1184164
-5.400134	c._n._c.
-3.660877	c._n._n.	-0.2293099
-5.400134	c._n._n.'s
-5.400134	c._n._n._n.
-5.400134	c._o._t._r.
-5.400134	c._p._a.
-5.400134	c._p._a.'s
-5.400134	c._p._i.
-5.045825	c._p._r.	-0.1184164
-5.400134	c._p._u.
-5.400134	c._r._x.
-5.400134	c._s._i.
-5.400134	c._v.
-5.400134	c._v._c.
-5.400134	c._w._a.
-5.400134	ca
-4.331024	ca-	-0.1184164
-5.400134	caan
-4.463427	cab	-0.1184164
-5.045825	cabbage	-0.1184164
-5.400134	cabbages
-5.400134	cabi-
-5.400134	cabin
-4.828617	cabinet	-0.1184164
-5.400134	cabinetry
-5.400134	cabinets
-5.045825	cabins	-0.1184164
-3.877787	cable	-0.1716275
-5.400134	cable's
-5.400134	cables
-5.400134	caboodle
-5.400134	cabriolets
-5.400134	cabs
-5.400134	cackle
-5.400134	cactus
-5.400134	cactuses
-5.045825	cad	-0.1184164
-5.400134	caddo
-5.400134	caddy
-5.045825	cadet	-0.1184164
-5.400134	cadets
-5.400134	cadillac
-5.400134	cadillacs
-5.400134	cadre
-5.400134	caesar
-5.400134	caesar's
-5.400134	caf-
-5.400134	cafe
-5.400134	cafes
-4.331024	cafeteria	-0.1184164
-5.400134	cafeterias
-5.400134	caffeine
-5.400134	cage
-5.400134	cages
-5.400134	cagney
-5.400134	cairn
-4.828617	cajun	-0.1184164
-5.400134	cajuns
-5.400134	cake
-5.400134	cakes
-5.400134	cal
-5.400134	cal's
-5.400134	cal-
-5.400134	caladiums
-5.400134	calais
-5.400134	calamity
-5.400134	calc-
-5.400134	calcium
-5.045825	calculate	-0.1184164
-5.400134	calculated
-5.400134	calculating
-4.654845	calculation	-0.1184164
-5.400134	calculations
-5.045825	calculator	-0.1184164
-5.045825	calculators	-0.1184164
-5.400134	calculus
-5.400134	calcutta
-5.400134	calendar
-5.400134	calendars
-5.045825	calf	-0.1184164
-5.045825	calgary	-0.1184164
-4.654845	caliber	-0.1184164
-5.400134	calibrate
-5.400134	calibrated
-5.400134	calico
-5.400134	califor-
-3.966678	california	-0.148645
-5.400134	california's
-5.400134	californian
-5.400134	californians
-5.400134	calipers
-4.828617	calisthenic	-0.256081
-5.045825	calisthenics	-0.1184164
-3.451955	call	-0.3240207
-5.400134	call's
-5.400134	call-
-5.400134	callaway's
-3.333875	called	-0.1879904
-4.828617	caller	-0.1184164
-5.400134	caller's
-5.400134	callers
-5.400134	callie
-5.400134	calligraphy
-5.400134	callin-
-4.147593	calling	-0.1489606
-5.400134	callous
-5.400134	calloused
-5.400134	callously
-5.400134	calloway's
-4.019032	calls	-0.1454588
-5.400134	callus
-5.045825	calm	-0.1184164
-5.400134	calmed
-5.400134	calmer
-5.045825	calming	-0.1184164
-5.400134	calmly
-5.400134	calmness
-5.045825	calms	-0.1184164
-5.400134	calorie
-5.400134	calories
-5.400134	calucci
-5.400134	calves
-5.400134	cam
-5.400134	cam-
-5.400134	cama-
-5.400134	camaraderie
-5.400134	camaro
-5.400134	cambodia
-5.400134	cambodians
-5.045825	cambridge	-0.1184164
-5.400134	camcorder
-5.400134	camcorders
-3.499718	came	-0.3449743
-5.400134	camelot
-5.400134	camels
-4.654845	camera	-0.1184164
-5.400134	camera's
-5.400134	cameras
-5.400134	cameron
-5.400134	cameron's
-5.400134	cameroon
-5.400134	camgonias
-5.400134	cammy
-5.400134	camouflage
-4.078573	camp	-0.1489606
-5.400134	camp-
-4.654845	campaign	-0.1184164
-5.400134	campaigning
-4.828617	campaigns	-0.1184164
-5.400134	campari's
-5.400134	campbell
-5.400134	campbells
-5.045825	camped	-0.1184164
-5.045825	camper	-0.1184164
-5.400134	campers
-5.400134	campfire
-5.400134	campground
-5.400134	campgrounds
-5.400134	campinas
-3.877787	camping	-0.2381323
-5.400134	camping's
-5.400134	campings
-5.400134	campout
-5.400134	camps
-5.400134	campsise
-5.400134	campsite
-5.400134	campsites
-3.919962	campus	-0.1484965
-5.045825	campuses	-0.1184164
-5.045825	camry	-0.1184164
-5.400134	camrys
-5.400134	camshaft
-2.96299	can	-0.3126222
-3.451955	can't	-0.2679667
-5.045825	can'ts	-0.1184164
-4.828617	can-	-0.1184164
-5.400134	cana-
-4.147593	canada	-0.188067
-5.045825	canada's	-0.1184164
-5.400134	canadian
-5.400134	canadians
-5.400134	canal
-5.400134	canals
-4.828617	canaries	-0.1184164
-5.045825	canary	-0.1184164
-5.400134	canaveral
-5.400134	canc-
-5.045825	cancel	-0.1184164
-5.400134	canceled
-5.400134	canceling
-4.331024	cancer	-0.1683745
-5.400134	cancer's
-5.400134	cancers
-5.400134	cancun
-5.400134	candace
-5.400134	candelaria
-5.400134	candi-
-5.045825	candice	-0.1184164
-5.400134	candid
-5.400134	candidacy
-4.654845	candidate	-0.1818167
-5.400134	candidate's
-4.463427	candidates	-0.1184164
-5.400134	candied
-5.400134	candies
-5.400134	candle
-5.400134	candlelight
-5.045825	candler	-0.1184164
-5.400134	candles
-5.400134	candlestick
-5.400134	candlesticks
-5.400134	candy
-5.400134	cane
-5.400134	caney
-5.400134	canine
-5.045825	canister	-0.1184164
-5.400134	cann-
-5.045825	canned	-0.1184164
-5.400134	canni-
-5.400134	cannibal
-5.400134	cannibalism
-5.400134	canning
-5.400134	cannolis
-5.400134	cannon
-5.400134	cannons
-4.828617	cannot	-0.1184164
-5.400134	canoe
-5.400134	canoed
-5.400134	canoeing
-5.400134	canoes
-5.400134	canopy
-3.593252	cans	-0.2855369
-5.400134	canseco
-5.400134	canseco's
-5.400134	cant
-5.400134	cantaloupe
-5.400134	cantaloupe's
-5.400134	cantaloupes
-5.400134	cantankerous
-5.400134	canterbury
-5.400134	cantinas
-5.400134	canton
-4.828617	canvas	-0.1184164
-5.400134	canvassing
-5.045825	canyon	-0.1184164
-5.400134	canyons
-5.400134	cap
-5.045825	cap-	-0.1184164
-5.400134	capabilities
-5.045825	capability	-0.1184164
-4.331024	capable	-0.3606564
-5.400134	capacities
-4.654845	capacity	-0.1184164
-5.045825	cape	-0.1184164
-5.400134	capita
-3.27993	capital	-0.6722364
-5.400134	capital's
-5.045825	capitalism	-0.1184164
-5.400134	capitalist
-5.045825	capitalistic	-0.1184164
-5.045825	capitol	-0.1184164
-5.400134	capone
-5.400134	capone's
-5.045825	capped	-0.1184164
-5.045825	cappella	-0.1184164
-5.400134	cappelletti
-5.400134	caprice
-4.828617	caps	-0.1184164
-5.400134	capsize
-5.400134	capsule
-5.400134	capsules
-5.045825	captain	-0.1184164
-5.400134	captains
-5.400134	captivated
-5.400134	captive
-5.400134	captives
-5.400134	captors
-5.400134	capture
-5.045825	captured	-0.1184164
-5.400134	captures
-5.045825	capturing	-0.1184164
-3.120403	car	-0.2959085
-5.045825	car'll	-0.1184164
-5.045825	car's	-0.1184164
-5.400134	car-
-5.400134	cara
-5.400134	caramel
-5.400134	carameli-
-5.400134	caramelized
-4.828617	caravan	-0.1184164
-5.400134	caravans
-5.400134	carbide
-5.400134	carbohydrates
-4.654845	carbon	-0.2051883
-5.400134	carbureted
-5.045825	carburetion	-0.1184164
-5.400134	carburetor
-5.400134	carburetors
-5.400134	carcass
-5.400134	carcinogenic
-4.463427	card	-0.1581872
-5.400134	card's
-4.654845	cardboard	-0.1184164
-5.400134	cardboards
-5.400134	cardigan
-5.400134	cardigans
-5.400134	cardin
-5.400134	cardinal
-5.400134	cardinals
-4.828617	cardiovascular	-0.1184164
-4.463427	cards	-0.1771039
-3.197054	care	-0.3122385
-5.400134	care's
-5.400134	care-
-4.331024	cared	-0.2305294
-4.229695	career	-0.1184164
-5.045825	careers	-0.1184164
-5.400134	carefree
-5.400134	carefu-
-4.229695	careful	-0.1426775
-4.654845	carefully	-0.1184164
-5.400134	caregiver
-5.400134	careless
-5.400134	carer
-4.229695	cares	-0.2082023
-5.400134	caretaker
-5.400134	caretakers
-5.400134	caretaking
-5.045825	carey	-0.1184164
-5.400134	cargo
-5.045825	caribbean	-0.1184164
-5.400134	caricature
-5.400134	caricatures
-4.654845	caring	-0.1184164
-5.400134	carl
-5.400134	carl's
-4.654845	carla	-0.1184164
-5.400134	carla's
-5.400134	carlos
-5.400134	carlsbad
-5.400134	carlton
-5.400134	carly
-5.400134	carmaker
-5.400134	carmakers
-5.400134	carmel
-5.400134	carmen
-5.400134	carn-
-5.400134	carnage
-4.828617	carnegie	-0.2560809
-5.400134	carney
-5.400134	carnival
-5.400134	carol
-5.400134	caroli-
-4.654845	carolina	-0.1184164
-5.400134	carolina's
-5.400134	carolinas
-5.400134	carolinians
-5.400134	carols
-4.828617	carolyn	-0.1184164
-5.400134	carousel
-5.400134	carp
-5.400134	carpenter
-5.400134	carpenters
-5.400134	carpentry
-4.654845	carpet	-0.1184164
-5.400134	carpet's
-5.400134	carpeting
-5.045825	carpets	-0.1184164
-4.828617	carpool	-0.1184164
-5.400134	carpooled
-5.400134	carpooling
-5.400134	carpools
-5.400134	carport
-5.400134	carports
-5.045825	carr-	-0.1184164
-5.400134	carradine's
-5.400134	carrer
-5.400134	carrera
-5.400134	carriage
-5.400134	carriages
-5.400134	carribean
-5.400134	carrie
-4.828617	carried	-0.1184164
-4.828617	carrier	-0.1184164
-5.045825	carriers	-0.1184164
-4.828617	carries	-0.1184164
-5.400134	carroll
-5.400134	carrollton
-5.400134	carrolton
-5.400134	carrot
-5.400134	carrots
-5.400134	carruthers
-3.966678	carry	-0.2320962
-5.400134	carry-on
-4.229695	carrying	-0.1184164
-5.400134	carryover
-3.188751	cars	-0.3698742
-5.400134	carson
-5.045825	carswell	-0.1184164
-5.045825	cart	-0.1184164
-5.400134	cart-
-5.400134	cartel
-5.400134	cartels
-5.400134	carter
-5.400134	carter's
-5.400134	cartilage
-5.400134	carting
-5.045825	carton	-0.1184164
-5.400134	cartons
-5.400134	cartoon
-5.400134	cartoonist
-5.400134	cartoons
-5.045825	carts	-0.1184164
-5.400134	carve
-5.400134	carved
-5.400134	carver
-5.400134	carves
-5.400134	carvey
-5.045825	carving	-0.1184164
-5.400134	casablanca
-5.400134	cascade
-3.35748	case	-0.2906253
-3.572864	cases	-0.2709709
-3.919962	cash	-0.3233332
-5.400134	cashed
-5.400134	cashes
-5.400134	cashew
-5.400134	cashews
-5.400134	cashier
-5.400134	cashiers
-5.400134	cashing
-5.400134	cashless
-5.400134	cashmere
-5.400134	cashways
-5.400134	casing
-5.400134	casings
-5.400134	casino
-5.400134	casinos
-5.400134	casks
-5.400134	cass-
-5.400134	casse-
-5.400134	casserole
-5.400134	casseroles
-5.400134	cassette
-4.828617	cassettes	-0.1184164
-4.463427	cast	-0.1184164
-5.400134	castaways
-4.828617	casting	-0.1184164
-5.400134	castle
-5.400134	castleberry
-5.400134	castles
-5.400134	castrate
-5.045825	castrated	-0.1184164
-4.828617	castration	-0.1184164
-5.400134	castro
-5.400134	castroville
-5.045825	casts	-0.1184164
-4.229695	casual	-0.1535049
-5.400134	casually
-5.400134	casualties
-3.771379	cat	-0.2036685
-5.045825	cat'll	-0.1184164
-4.828617	cat's	-0.1184164
-5.045825	cat-	-0.1184164
-5.400134	catacombs
-5.400134	catalina
-5.045825	catalog	-0.1184164
-4.828617	catalogs	-0.1184164
-5.400134	catalyst
-5.400134	catalytic
-4.828617	catamaran	-0.1184164
-4.654845	catamarans	-0.1184164
-5.400134	catapults
-5.400134	catas-
-5.400134	catastrophe
-5.400134	catastrophes
-5.400134	catastrophic
-5.400134	catatonic
-3.919962	catch	-0.2520486
-5.045825	catch-22	-0.1184164
-5.400134	catchall
-5.400134	catcher
-5.400134	catchers
-5.045825	catches	-0.1184164
-4.828617	catching	-0.1184164
-5.400134	catchy
-5.400134	cate
-5.400134	catego-
-4.463427	categories	-0.1184164
-5.045825	categorize	-0.1184164
-5.400134	categorized
-4.147593	category	-0.1916795
-5.400134	category's
-5.045825	cater	-0.1184164
-5.400134	catered
-5.400134	caterer
-5.400134	catering
-5.400134	caterpillars
-5.400134	caters
-5.400134	catfish
-5.400134	catharine
-5.400134	cathedral
-5.045825	catherine	-0.1184164
-5.400134	cathlene
-4.828617	catholic	-0.1184164
-5.400134	catholicism
-5.045825	catholics	-0.1184164
-4.654845	cathy	-0.1184164
-5.400134	catnip
-3.712622	cats	-0.2567272
-5.400134	cats'
-5.400134	cattiness
-5.400134	cattle
-5.400134	catton's
-5.400134	catty-cornered
-5.400134	cau-
-5.400134	caucasian
-5.400134	caugh-
-3.741008	caught	-0.1972621
-5.400134	cauliflower
-5.400134	caulk
-5.400134	caulking
-5.045825	causalities	-0.1184164
-4.828617	causality	-0.1184164
-3.685979	cause	-0.1911319
-4.828617	caused	-0.1184164
-4.331024	causes	-0.1184164
-4.654845	causing	-0.1184164
-5.400134	caution
-5.400134	cautious
-5.400134	cavalier
-5.400134	cavaliers
-5.400134	cavalry
-5.400134	cave
-5.400134	caveman
-5.400134	cavern
-5.400134	caverns
-5.400134	caves
-5.400134	cavity
-5.400134	cayenne
-5.400134	cayennes
-5.400134	cayman
-5.400134	cbs
-5.045825	cd-rom	-0.1184164
-4.654845	ce-	-0.1184164
-5.400134	ceasars
-5.400134	cease
-5.400134	ceasefire
-5.400134	ceases
-5.400134	cecil
-5.400134	cedar
-5.400134	cei-
-5.400134	ceiling
-5.400134	ceiling's
-5.400134	ceilings
-5.400134	cele-
-5.400134	celebr-
-5.400134	celebrate
-5.045825	celebrated	-0.1184164
-5.400134	celebrating
-5.400134	celebration
-5.400134	celebrations
-5.400134	celebrities
-5.400134	celebrity
-5.400134	celery
-5.400134	celica
-5.400134	celicas
-5.400134	celinas
-5.400134	cell
-5.400134	cell-
-5.400134	cellar
-5.400134	cellars
-5.400134	cello
-5.400134	cells
-5.400134	celltrex
-5.400134	cellular
-5.400134	celosias
-5.400134	celsius
-4.147593	celtic	-0.1850305
-5.400134	celtics
-5.400134	cem-
-5.045825	cement	-0.1184164
-5.400134	cen-
-5.400134	censor
-5.045825	censored	-0.1184164
-4.828617	censorship	-0.1184164
-5.400134	census
-4.828617	cent	-0.1184164
-5.400134	cent-
-5.400134	centennial
-3.741008	center	-0.2969338
-4.828617	centered	-0.2560809
-4.147593	centers	-0.1904359
-5.400134	centerville
-5.400134	centigrade
-5.400134	centime
-5.400134	centimeter
-5.400134	centimeters
-5.400134	centipede
-4.331024	central	-0.1535049
-4.654845	centralization	-0.1184164
-5.400134	centralize
-5.400134	centralized
-5.400134	centralizing
-5.045825	centrally	-0.1184164
-5.400134	centrifugal
-5.400134	centro
-4.078573	cents	-0.1658266
-5.400134	centuries
-4.828617	century	-0.1184164
-5.400134	ceo's
-4.654845	cer-	-0.1184164
-5.400134	ceramic
-4.828617	ceramics	-0.1184164
-5.400134	cereal
-5.400134	cereals
-5.400134	cerebral
-5.400134	ceremonies
-5.400134	ceremony
-5.400134	cert-
-5.400134	certai-
-3.499718	certain	-0.1796811
-5.400134	certain-
-3.467299	certainly	-0.164805
-5.400134	certainty
-5.400134	certificate
-5.045825	certificates	-0.1184164
-5.045825	certification	-0.1184164
-5.400134	certifications
-5.045825	certified	-0.1184164
-5.400134	cessation
-5.045825	cetera	-0.1184164
-4.147593	ch-	-0.1489606
-5.400134	cha
-5.400134	cha-
-5.400134	chablis
-5.400134	chad's
-5.400134	chaffey
-5.400134	chagrin
-4.331024	chain	-0.1184164
-5.400134	chained
-5.045825	chains	-0.1184164
-5.400134	chainsaw
-4.463427	chair	-0.1184164
-5.045825	chairman	-0.1184164
-5.400134	chairmen
-5.045825	chairs	-0.1184164
-5.400134	chalk
-4.229695	challenge	-0.1184164
-4.654845	challenged	-0.1184164
-5.400134	challenger
-5.045825	challenges	-0.1184164
-5.045825	challenging	-0.1184164
-5.045825	chamber	-0.1184164
-5.045825	chambers	-0.1184164
-5.400134	chameleon
-5.400134	champ
-5.400134	champagne
-5.400134	champion
-5.400134	champions
-5.400134	championship
-5.400134	championships
-5.400134	champlain
-5.400134	champs
-5.045825	chan-	-0.1184164
-3.919962	chance	-0.2152646
-5.400134	chance-vought
-5.400134	chancellor
-5.400134	chancellor's
-4.654845	chances	-0.1184164
-5.400134	chancy
-5.400134	chandelier
-5.400134	chang
-3.451955	change	-0.2408658
-3.637146	changed	-0.1453037
-5.400134	changers
-3.741008	changes	-0.1872414
-3.919962	changing	-0.1184164
-5.400134	chann-
-4.654845	channel	-0.1184164
-5.400134	channel's
-5.400134	channeled
-5.400134	channeling
-5.045825	channels	-0.1184164
-5.400134	chanting
-4.654845	chaos	-0.2051883
-5.400134	chaparrals
-5.400134	chapel
-5.400134	chaperon
-5.400134	chapman
-5.400134	chapter
-5.400134	chapters
-5.400134	char-
-5.400134	charac-
-4.229695	character	-0.2051883
-5.400134	character's
-5.045825	character-	-0.1184164
-5.045825	characteristic	-0.1184164
-5.400134	characteristically
-5.400134	characteristics
-5.400134	characterized
-5.400134	characterizing
-5.400134	characters
-5.400134	charcoal
-5.400134	charcoals
-5.400134	chard
-5.400134	chardonnays
-3.741008	charge	-0.2513971
-4.331024	charged	-0.1184164
-4.654845	charger	-0.1184164
-4.654845	charges	-0.1184164
-4.828617	charging	-0.1184164
-5.400134	chariots
-5.400134	charisma
-5.400134	charismatic
-5.400134	charitable
-5.400134	charities
-5.045825	charity	-0.1184164
-5.400134	charlene
-5.400134	charlene's
-4.331024	charles	-0.2305294
-5.400134	charleston
-5.400134	charley
-5.045825	charlie	-0.1184164
-5.400134	charlotte
-5.400134	charlotte's
-5.045825	charlottesville	-0.1184164
-5.400134	charm
-5.400134	charmed
-5.400134	charming
-5.400134	charms
-5.400134	chart
-5.045825	charter	-0.1184164
-5.400134	chartered
-5.045825	charts	-0.1184164
-4.828617	chase	-0.1184164
-5.400134	chase's
-5.400134	chased
-5.045825	chaser	-0.1184164
-5.400134	chases
-4.654845	chasing	-0.1184164
-5.400134	chassis
-5.400134	chasta
-5.400134	chasta's
-5.400134	chastising
-5.400134	chat
-5.400134	chatelier's
-5.400134	chattanooga
-5.400134	chatterjee
-5.045825	chatting	-0.1184164
-5.400134	chaucer
-5.400134	chauffeur
-5.400134	chauvinist
-5.400134	chauvinistic
-5.400134	che
-5.400134	che-
-4.019032	cheap	-0.198341
-5.400134	cheapening
-3.919962	cheaper	-0.1635878
-4.828617	cheapest	-0.1184164
-5.400134	cheapies
-5.400134	cheaply
-5.400134	cheapness
-5.400134	cheapskate
-5.045825	cheat	-0.1184164
-5.045825	cheated	-0.1184164
-5.045825	cheaters	-0.1184164
-4.828617	cheating	-0.1184164
-3.516882	check	-0.231318
-5.045825	check-	-0.1184164
-4.331024	checkbook	-0.1184164
-5.400134	checkbook's
-4.654845	checkbooks	-0.1184164
-4.331024	checked	-0.1184164
-5.400134	checker
-5.400134	checkered
-5.045825	checkers	-0.1184164
-4.019032	checking	-0.2305294
-5.400134	checkless
-5.400134	checkmate
-5.400134	checkoff
-3.712622	checks	-0.2824725
-5.045825	checkup	-0.1184164
-4.654845	checkups	-0.1184164
-5.400134	cheddar
-5.400134	cheddar's
-5.400134	cheddars
